tree
version=v4
num_class=1
num_tree_per_iteration=1
label_index=0
max_feature_idx=3
objective=regression
feature_names=temperature co2 tvoc humidity
feature_infos=[18.332999999999998:24.614000000000001] [424.94600000000003:908.56200000000001] [0:4568.3999999999996] [26.759:66.855999999999995]
tree_sizes=2687 2776 2786 2782 2792 2782 2796 2786 2796 2807 2814 2832 2797 2813 2816 2801 2815 2824 2851 2822 2806 2821 2820 2796 2816 2814 2814 2798 2818 2825 2808 2853 2837 2803 2815 2822 2808 2821 2841 2816 2810 2805 2799 2820 2851 2817 2848 2817 2802 2848 2799 2856 2843 2847 2826 2821 2850 2887 2853 2881 2842 2872 2849 2831 2845 2858 2847 2797 2855 2797 2840 2782 2859 2802 2819 2825 2855 2817 2828 2837 2832 2834 2852 2840 2819 2824 2833 2838 2829 2881 2455 2559 2823 2836 2813 2867 2890 2502 2663 2252 2493 2887 2889 2220 2891 2852 2676 2486 2891 2603 2881 2849 2877 2880 2568 2901 2727 2853 2866 2899 2888 2530 2864 2887 2876 2894 2840 2797 2781 2868 2863 2789 2881 2863 2865 2911 2893 2553 2668 2537 2856 2535 2860 2838 2769 2853 2806 2867 2861 2863 2908 2843 2894 2903 2840 2910 2852 2863 2869 2902 2869 2903 2857 2894 2836 2859 2879 2881 2825 2479 2801 2794 2888 2793 2808 2863 2861 2907 2908 2805 2802 2794 2870 2858 2869 2864 2878 2844 2857 2837 2804 2853 2878 2835 2802 2796 2930 2817 2470 2578 2895 2851 2822 2820 2812 2840 2928 2890 2854 2808 2895 2813 2868 2922 2861 2848 2883 2847 2799 2868 2858 2797 2848 2836 2798 2845 2847 2871 2871 2891 2841 2799 2888 2788 2826 2863 2827 2835 2800 2814 2860 2838 2881 2888 2799 2878 2904 2832 2852 2888 2835 2810 2821 2893 2816 2893 2879 2877 2871 2855 2874 2861 2858 2852 2672 2858 2829 2318 2826 2839 2830 2831 2835 2802 2663 2846 2851 2868 2884 2854 2826 2819 2882 2834 2872 2861 2803 2817 2883 2836 2854 2844 2866 2835 2848 2872 2828 2889 2822 2846 2845 2856 2877 2891 2745 2731 2926 2872 2828 2840 2829 2855 2851 2885 2819 2890 2855 2852 2852 2845 2930 2858 2851 2835 2867 2898 2771 2891 2816 2853 2862 2945 2899 2824 2807 2882 2879 2873 2901 2901 2923 2853 2906 2866 2913 2859 2656 2853 2909 2916 2854 2848 2870 2815 2910 2867 2865 2854 2865 2874 2853 2810 2852 2873 2863 2823 2851 2906 2855 2840 2885 2822 2870 2830 2894 2879 2757 2646 2810 2836 2852 2838 2847 2816 2886 2822 2802 2849 2815 2863 2809 2837 2823 2870 2576 2861 2830 2866 2909 2844 2826 2832 2784 2822 2816 2865 2818 2816 2794 2877 2849 2794 2929 2651 2898 2822 2854 2820 2795 2920 2846 2807 2858 2853 2849 2849 2895 2828 2845 2869 2893 2828 2841 2867 2839 2816 2817 2779 2792 2824 2786 2879 2931 2862 2858 2852 2858 2908 2848 2942 2854 2866 2862 2879 2927 2873 2814 2798 2663 2841 2849 2884 2879 2853 2848 2889 2835 2856 2900 2851 2894 2894 2882 2845 2824 2798 2907 2851 2830 2853 2908 2842 2889 2880 2842 2884 2893 2857 2891 2802 2788 2868 2881 2864 2842 2853 2818 2856 2827 2878 2890 2889 2876 2884 2889 2823 2833 2842 2852 2836 2938 2884 2879 2815 2901 2845 2665 2852 2886 2832 2881 2595 2875 2823 2833 2826 2880 2831 2852 2824 2867 2891 2866 2827 2810 2821 2832 2861 2648 2762 2861 2785 2845 2851 2894 2864 2858 2434 2880 2859 2857 2870 2881 2815 2337 2840 2772 2889 2414 2876 2825 2904 2826 2849 2844 2829 2842 2874 2872 2869 2817 2839 2858 2923 2896 2876 2853 2868 2865 2836 2896 2859 2828 2688 2862 2870 2909 2862 2879 2864 2906 2810 2906 2836 2888 2842 2862 2835 2855 2880 2829 2934 2869 2863 2890 2838 2864 2848 2874 2874 2839 2816 2766 2818 2870 2815 2870 2928 2892 2822 2828 2811 2851 2894 2849 2895 2795 2865 2782 2862 2838 2929 2838 2880 2813 2838 2874 2836 2868 2867 2882 2825 2886 2830 2832 2853 2818 2824 2498 2823 2854 2868 2862 2839 2826 2836 2891 2802 2836 2861 2864 2826 2829 2912 2793 2863 2885 2853 2846 2881 2928 2864 2823 2863 2937 2843 2890 2859 2915 2852 2867 2776 2855 2833 2912 2893 2881 2881 2915 2910 2874 2900 2879 2867 2866 2881 2878 2879 2899 2878 2842 2912 2898 2845 2905 2864 2900 2889 2881 2894 2861 2941 2836 2915 2872 2891 2848 2860 2859 2835 2864 2871 2912 2891 2868 2893 2862 2937 2883 2835 2893 2852 2836 2682 2892 2814 2681 2848 2898 2876 2904 2836 2883 2864 2864 2770 2772 2945 2803 2579 2905 2689 2881 2872 2888 2504 2898 2875 2858 2891 2917 2874 2899 2871 2905 2725 2861 2914 2857 2877 2819 2862 2694 2859 2602 2846 2874 2840 2802 2879 2863 2890 2916 2881 2861 2894 2689 2888 2877 2896 2350 2876 2845 2887 2850 2860 2895 2887 2852 2514 2874 2545 2898 2911 2646 2901 2837 2879 2905 2885 2856 2900 2894 2918 2900 2845 2960 2863 2864 2845 2841 2884 2852 2913 2890 2793 2875 2872 2861 2879 2877 2878 2854 2875 2918 2884 2944 2795 2889 2891 2916 2889 2902 2873 2885 2913 2901 2882 2874 2886 2898 2846 2868 2868 2876 2934 2910 2887 2884 2902 2878 2879 2920 2915 2895 2854 2896 2841 2844 2856 2694 2839 2868 2860 2844 2858 2929 2893 2851 2933 2873 2841 2938 2914 2913 2871 2936 2861 2837 2864 2915 2901 2873 2879 2922 2615 2870 2922 2884 2866 2850 2669 2903 2920 2901 2854 2909 2834 2876 2907 2919 2875 2945 2946 2813 2867 2827 2844 2916 2845 2902 2903 2443 2738 2833 2897 2810 2882 2879 2886 2900 2851 2826 2855 2829 2838 2824 2849 2859 2835 2899 2886 2837 2877 2851 2855 2837 2820 2877 2894 2535 2869 2873 2935 2883 2863 2878 2879 2908 2888 2894 2875 2855 2784 2884 2925 2911 2901 2895 2897 2912 2860 2881 2902 2895 2884 2863 2937 2864 2924 2851 2860 2642 2943 2944 2855 2864 2867 2868 2876 2724 2724 2876 2906 2821 2893 2841 2835 2869 2924

Tree=0
num_leaves=31
num_cat=0
split_feature=3 2 3 3 1 3 3 0 0 2 1 0 2 1 2 3 2 1 1 3 0 0 3 3 0 1 3 1 2 0
split_gain=249297 30110.8 18275.5 14591.7 14005.9 6951.95 6892.6 5571.34 3807.63 2555.22 2306.86 2109.1 1905.33 1652.82 1633.17 3255.35 1580.96 1515.88 1058.08 1830.62 951.135 2650.49 23494.7 828.143 506.903 963.193 536.934 459.253 413.824 401.978
threshold=62.244500000000009 759.85400000000016 47.201500000000003 63.493500000000004 453.17000000000002 51.354500000000009 52.560500000000012 22.347500000000004 21.260500000000004 1118.8550000000002 500.00250000000005 23.141500000000004 211.53800000000004 460.59400000000011 585.63800000000003 49.746500000000005 1.0000000180025095e-35 571.31100000000015 447.13550000000004 45.817500000000003 20.347500000000004 20.830500000000004 53.718000000000011 54.543500000000002 23.093500000000002 567.71900000000016 44.258500000000005 491.14650000000006 868.96850000000006 22.176500000000001
decision_type=2 2 2 2 2 2 2 2 2 2 2 2 2 2 2 2 2 2 2 2 2 2 2 2 2 2 2 2 2 2
left_child=1 5 18 7 -4 8 13 10 14 17 27 12 -10 -6 16 -16 -1 29 19 -3 -7 22 -22 -23 26 -26 -20 -2 -8 -5
right_child=3 2 4 9 6 20 28 -9 11 -11 -12 -13 -14 -15 15 -17 -18 -19 24 -21 21 23 -24 -25 25 -27 -28 -29 -30 -31
leaf_value=1.1948628892857631 1.6958345035710183 1.1498423425968145 1.5762320992851186 2.3794598876951691 1.2934120961192099 1.0357817415046044 1.4331018823912456 1.0918456999003874 1.1597696833071411 2.0913913860567521 2.3824897314922442 1.2307474089267336 1.0735794222837776 1.1775870889012543 1.1068710255136764 1.7552822293655503 1.0449908871229086 1.9656872281746496 1.0897559637697514 1.4358617237457896 1.0679885352087117 1.1491727780437457 2.1771529610374367 1.0999325459704803 1.0412160617047623 1.3213728247935961 1.1286524725185487 1.8784675498361945 1.6520870148657318 2.5198229440722439
leaf_weight=177 55 339 384 188 433 302 28 26 695 101 20 239 8283 1067 602 20 30001 20 1844 67 270 1271 58 2602 51 77 1710 92 94 70
leaf_count=177 55 339 384 188 433 302 28 26 695 101 20 239 8283 1067 602 20 30001 20 1844 67 270 1271 58 2602 51 77 1710 92 94 70
internal_value=1.08859 1.07686 1.18109 2.12657 1.3047 1.06259 1.24042 1.77268 1.05596 2.30678 1.87868 1.08415 1.08025 1.21102 1.04752 1.12772 1.04587 2.38504 1.12044 1.19704 1.12149 1.12765 1.26412 1.11609 1.11199 1.20975 1.10847 1.81014 1.60183 2.41754
internal_weight=51186 50614 6094 572 2006 44520 1622 193 40017 379 167 9217 8978 1500 30800 622 30178 278 4088 406 4503 4201 328 3873 3682 128 3554 147 122 258
internal_count=51186 50614 6094 572 2006 44520 1622 193 40017 379 167 9217 8978 1500 30800 622 30178 278 4088 406 4503 4201 328 3873 3682 128 3554 147 122 258
is_linear=0
shrinkage=1


Tree=1
num_leaves=31
num_cat=0
split_feature=3 2 3 3 1 3 3 0 0 2 1 0 2 1 2 1 2 1 0 0 3 1 3 3 2 0 1 1 2 0
split_gain=224991 27175 16493.7 13169 12640.4 6276.26 6220.57 5028.14 3315.64 2306.09 2081.94 1888.72 1734.25 1501.61 1475.43 2999.15 1462.74 1368.08 1193.93 1982.44 21654.1 954.913 1652.14 790.355 469.255 1087.92 414.476 387.484 373.476 264.205
threshold=62.244500000000009 759.85400000000016 47.201500000000003 63.493500000000004 453.17000000000002 51.14950000000001 52.560500000000012 22.347500000000004 21.260500000000004 1118.8550000000002 500.00250000000005 23.141500000000004 211.53800000000004 459.5365000000001 585.63800000000003 658.24000000000012 4.5980000000000008 571.31100000000015 20.347500000000004 20.830500000000004 53.718000000000011 447.13550000000004 45.817500000000003 54.543500000000002 908.46600000000012 23.141500000000004 491.14650000000006 511.84750000000003 868.96850000000006 21.886500000000002
decision_type=2 2 2 2 2 2 2 2 2 2 2 2 2 2 2 2 2 2 2 2 2 2 2 2 2 2 2 2 2 2
left_child=1 5 21 7 29 8 13 10 14 17 26 12 -10 -6 16 -16 -1 27 -7 20 -20 22 -3 -21 25 -23 -2 -5 -8 -4
right_child=3 2 4 9 6 18 28 -9 11 -11 -12 -13 -14 -15 15 -17 -18 -19 19 23 -22 24 -24 -25 -26 -27 -28 -29 -30 -31
leaf_value=0.063502658102605442 0.57688556714491412 0.058192986484540077 0.4836960073813652 1.3530882588139288 0.20358329844282 -0.050358871361850022 0.32728955341236937 0.0030961764815191813 0.067437165587047126 0.9526646269430028 1.2292079973220826 0.13665002211442462 -0.014868488627996329 0.087635919801279188 0.017113613645217234 0.63950413465499878 -0.041877639806772615 0.83324565529823313 -0.021810511616839959 0.057272831695392157 1.0341380211813698 0.034639774978555526 0.32991139675254255 0.010778679914552745 0.0031811130606233294 0.36023712181127987 0.75038694557936303 1.2210567932344427 0.53532542725826837 0.37908040173848473
leaf_weight=333 55 339 309 81 371 428 28 26 694 101 20 230 8228 1129 601 20 29619 20 298 1409 58 1935 67 2602 1721 26 92 177 94 75
leaf_count=333 55 339 309 81 371 428 28 26 694 101 20 230 8228 1129 601 20 29619 20 298 1409 58 1935 67 2602 1721 26 92 177 94 75
internal_value=1.34525e-11 -0.011144 0.0878813 0.986084 0.205308 -0.0246988 0.144239 0.649891 -0.0312211 1.15729 0.75059 -0.00481939 -0.00846632 0.116314 -0.0391245 0.0371584 -0.040706 1.23163 0.0293369 0.0371477 0.150226 0.0302594 0.103033 0.0271113 0.0222349 0.0389567 0.685471 1.26251 0.487579 0.463263
internal_weight=51186 50614 6094 572 2006 44520 1622 193 39725 379 167 9152 8922 1500 30573 621 29952 278 4795 4367 356 4088 406 4011 3682 1961 147 258 122 384
internal_count=51186 50614 6094 572 2006 44520 1622 193 39725 379 167 9152 8922 1500 30573 621 29952 278 4795 4367 356 4088 406 4011 3682 1961 147 258 122 384
is_linear=0
shrinkage=0.05


Tree=2
num_leaves=31
num_cat=0
split_feature=3 2 3 3 1 3 3 0 0 2 1 0 2 2 3 2 1 1 1 3 0 0 3 3 3 0 1 0 0 1
split_gain=203054 24525.4 14885.5 11885 11412.2 5664.83 5642.44 4537.9 3103.73 2081.25 1878.95 1719.46 1552.04 1330.36 2765.44 1323.9 1292.24 1234.69 861.809 1491.06 774.739 2161.67 19132.3 674.959 441.104 433.291 376.079 365.788 349.028 262.893
threshold=62.244500000000009 759.85400000000016 47.201500000000003 63.493500000000004 453.37750000000005 51.354500000000009 52.560500000000012 22.347500000000004 21.260500000000004 1118.8550000000002 500.00250000000005 23.141500000000004 211.53800000000004 585.63800000000003 49.746500000000005 1.0000000180025095e-35 460.59400000000011 571.31100000000015 447.13550000000004 45.817500000000003 20.347500000000004 20.830500000000004 53.718000000000011 54.543500000000002 41.912500000000001 23.093500000000002 492.78850000000006 21.721500000000002 21.186500000000006 511.84750000000003
decision_type=2 2 2 2 2 2 2 2 2 2 2 2 2 2 2 2 2 2 2 2 2 2 2 2 2 2 2 2 2 2
left_child=1 5 18 7 -4 8 16 10 13 17 26 12 -10 15 -15 -1 -6 27 19 -3 -7 22 -22 -23 -20 -26 -2 -5 -8 -29
right_child=3 2 4 9 6 20 28 -9 11 -11 -12 -13 -14 14 -16 -17 -18 -19 24 -21 21 23 -24 -25 25 -27 -28 29 -30 -31
leaf_value=0.097787371984982899 0.56845542948010941 0.055283335847697693 0.43703314394366988 1.1393844015896322 0.18326654990981608 -0.047646639235811125 0.50064910761281556 0.0029413679184821938 0.064252833730454068 0.90503136285460828 1.1677475976943972 0.12836975074805726 -0.013537314288089009 0.016101005531118817 0.61373307824134837 -0.03936046527714733 0.080168699121998227 0.79158334910869599 -0.014191860538420137 0.31341581309019628 -0.018477603543842973 0.054693258257346847 0.98243114041357205 0.01023974666977015 0.026001161800362077 0.13087109984720455 0.72849673346469279 1.3389245267499958 0.27221277475357059 1.1956292152404786
leaf_weight=177 71 339 392 128 425 302 102 26 695 101 20 239 8283 602 20 30001 1067 20 713 67 270 1271 58 2602 2867 102 76 57 20 73
leaf_count=177 71 339 392 128 425 302 102 26 695 101 20 239 8283 602 20 30001 1067 20 713 67 270 1271 58 2602 2867 102 76 57 20 73
internal_value=-5.52328e-10 -0.0105868 0.0834872 0.93678 0.195043 -0.0234638 0.136269 0.617396 -0.0294468 1.09942 0.71306 -0.00399192 -0.00751547 -0.0370642 0.0353175 -0.0385561 0.109536 1.17004 0.0287464 0.0978816 0.029705 0.0352657 0.158512 0.024828 0.0211231 0.029604 0.651198 1.19938 0.463201 1.25846
internal_weight=51186 50614 6094 572 2006 44520 1614 193 40017 379 167 9217 8978 30800 622 30178 1492 278 4088 406 4503 4201 328 3873 3682 2969 147 258 122 130
internal_count=51186 50614 6094 572 2006 44520 1614 193 40017 379 167 9217 8978 30800 622 30178 1492 278 4088 406 4503 4201 328 3873 3682 2969 147 258 122 130
is_linear=0
shrinkage=0.05


Tree=3
num_leaves=31
num_cat=0
split_feature=3 2 3 3 1 3 3 0 0 3 1 0 2 1 2 1 2 0 0 3 1 2 3 2 1 2 0 1 2 1
split_gain=183256 22134.2 13434.2 10726.2 10309.2 5128.86 5067.88 4095.45 2697.06 1901.68 1695.75 1540.73 1413.32 1231.55 1203.52 2548.16 1225.75 1039.06 2351.38 22490.2 777.783 1364.35 653.468 459.174 788.581 411.194 950.098 344.662 315.024 299.519
threshold=62.244500000000009 759.85400000000016 47.201500000000003 63.493500000000004 453.17000000000002 51.14950000000001 52.560500000000012 22.347500000000004 21.260500000000004 64.44550000000001 500.00250000000005 23.141500000000004 211.53800000000004 459.5365000000001 585.63800000000003 658.24000000000012 4.5980000000000008 20.503500000000006 20.830500000000004 53.718000000000011 447.13550000000004 889.69250000000011 54.543500000000002 1118.8550000000002 532.1110000000001 908.46600000000012 23.141500000000004 491.14650000000006 868.96850000000006 511.84750000000003
decision_type=2 2 2 2 2 2 2 2 2 2 2 2 2 2 2 2 2 2 2 2 2 2 2 2 2 2 2 2 2 2
left_child=1 5 20 7 -4 8 13 10 14 23 27 12 -10 -6 16 -16 -1 -7 19 -19 21 -3 -20 24 -5 26 -22 -2 -8 -11
right_child=3 2 4 9 6 17 28 -9 11 29 -12 -13 -14 -15 15 -17 -18 18 22 -21 25 -23 -24 -25 -26 -27 -28 -29 -30 -31
leaf_value=0.05865062583495189 0.51961852073669434 0.24428622260232619 0.41824843638266129 1.0956771297731263 0.18396720879804093 -0.04188991122667339 0.2928272932767868 0.0027942994296049272 0.060852662568441553 1.242673853671912 1.1093602228164674 0.12339903345088597 -0.013448199388146495 0.078962600526818139 0.015104842546755082 0.58879487037658695 -0.037815735057699709 -0.013080903821334731 0.052004294454783065 1.2270813478979954 0.031685933763426322 0.037460329834064499 0.0097277597050332149 0.85977980264342657 0.73910405337810525 0.0022308873823341439 0.33596069147953622 0.67783442632011748 0.48389122841206006 1.1106390534377679
leaf_weight=333 55 109 384 69 371 497 28 26 694 66 20 230 8228 1129 601 20 29619 244 1409 43 1935 297 2602 101 20 1721 26 92 94 123
leaf_count=333 55 109 384 69 371 497 28 26 694 66 20 230 8228 1129 601 20 29619 244 1409 43 1935 297 2602 101 20 1721 26 92 94 123
internal_value=-5.92263e-10 -0.0100574 0.0793128 0.889941 0.185291 -0.0222906 0.130139 0.586527 -0.0281867 1.04445 0.677407 -0.00437481 -0.00766869 0.104934 -0.0353148 0.0335812 -0.0367432 0.0265567 0.0344715 0.172727 0.0273091 0.0929875 0.0245788 0.932745 1.01555 0.020067 0.0357202 0.618638 0.44004 1.15675
internal_weight=51186 50614 6094 572 2006 44520 1622 193 39725 379 167 9152 8922 1500 30573 621 29952 4795 4298 287 4088 406 4011 190 89 3682 1961 147 122 189
internal_count=51186 50614 6094 572 2006 44520 1622 193 39725 379 167 9152 8922 1500 30573 621 29952 4795 4298 287 4088 406 4011 190 89 3682 1961 147 122 189
is_linear=0
shrinkage=0.05


Tree=4
num_leaves=31
num_cat=0
split_feature=3 2 3 3 1 3 3 0 0 3 1 0 2 1 1 3 2 0 0 3 1 3 3 2 1 0 1 3 2 0
split_gain=165389 19976.1 12124.4 9680.41 9313.99 4628.79 4551.82 3696.14 2434.1 1716.27 1530.42 1390.51 1277.09 1185.3 1148.77 14060.2 1111.8 937.754 2122.12 20297.4 705.874 1308.12 589.755 414.404 711.694 378.811 805.096 363.654 323.046 294.752
threshold=62.244500000000009 759.85400000000016 47.201500000000003 63.493500000000004 452.38700000000006 51.14950000000001 52.560500000000012 22.347500000000004 21.260500000000004 64.44550000000001 500.00250000000005 23.141500000000004 217.44500000000002 464.99400000000009 749.44150000000013 49.294500000000006 1.0000000180025095e-35 20.503500000000006 20.830500000000004 53.718000000000011 448.44100000000009 45.817500000000003 54.543500000000002 1118.8550000000002 532.1110000000001 23.093500000000002 619.55700000000013 45.263500000000008 1086.5550000000001 21.186500000000006
decision_type=2 2 2 2 2 2 2 2 2 2 2 2 2 2 2 2 2 2 2 2 2 2 2 2 2 2 2 2 2 2
left_child=1 5 20 7 -4 8 13 10 14 23 28 12 -10 -6 16 -16 -1 -7 19 -19 21 -3 -20 24 -5 27 -27 -22 -2 -8
right_child=3 2 4 9 6 17 29 -9 11 -11 -12 -13 -14 -15 15 -17 -18 18 22 -21 25 -23 -24 -25 -26 26 -28 -29 -30 -31
leaf_value=0.089965472425107912 0.44132804870605469 0.049921495158017276 0.40034831161511708 1.0408932464710181 0.14537592384639203 -0.039795415807080646 0.45245231477653286 0.0026545845088548959 0.056179504381763549 1.0989091260092598 1.0538922357559206 0.1172290795604172 -0.012923810205197709 0.056712428641369439 -0.024135106945369352 0.99259822103712292 -0.035719847212253457 -0.012426858064413194 0.049404080647521116 1.1657272817437041 0.0050358390996266527 0.28553070879694242 0.0092413697420147597 0.81679081397481479 0.70214882731437689 -0.047018329813232965 0.20756521904468539 0.042643809002129697 0.62523891905434115 0.24252778381109238
leaf_weight=177 30 488 376 69 745 497 102 26 728 189 20 230 8194 763 613 36 29747 244 1409 43 2545 67 2602 101 20 53 75 860 117 20
leaf_count=177 30 488 376 69 745 497 102 26 728 189 20 230 8194 763 613 36 29747 244 1409 43 2545 67 2602 101 20 53 75 860 117 20
internal_value=-1.84944e-10 -0.00955455 0.0753472 0.845444 0.176026 -0.0211761 0.124281 0.5572 -0.0267774 0.992228 0.643537 -0.00415607 -0.00728525 0.100515 -0.0335491 0.032263 -0.0349764 0.0252288 0.0327479 0.164091 0.0259436 0.0783644 0.0233499 0.886108 0.964771 0.0177088 0.102152 0.0145345 0.587706 0.418038
internal_weight=51186 50614 6094 572 2006 44520 1630 193 39725 379 167 9152 8922 1508 30573 649 29924 4795 4298 287 4088 555 4011 190 89 3533 128 3405 147 122
internal_count=51186 50614 6094 572 2006 44520 1630 193 39725 379 167 9152 8922 1508 30573 649 29924 4795 4298 287 4088 555 4011 190 89 3533 128 3405 147 122
is_linear=0
shrinkage=0.05


Tree=5
num_leaves=31
num_cat=0
split_feature=3 2 3 1 3 3 3 0 0 0 3 1 0 2 3 2 0 0 0 3 1 0 2 0 1 0 2 1 1 0
split_gain=149263 18135.6 12996.3 9153.4 8736.57 3883.64 3846.44 3335.77 2858.26 1696.9 1548.93 1381.2 1042.83 1053.83 1003.21 985.638 761.222 759.844 1486.46 16266.8 641.983 979.603 535.175 519.768 513.546 461.683 374 642.304 296.175 272.311
threshold=62.244500000000009 615.28650000000016 47.201500000000003 453.37750000000005 63.493500000000004 57.092500000000008 51.14950000000001 22.347500000000004 20.772500000000004 23.141500000000004 64.44550000000001 500.00250000000005 21.075500000000002 211.53800000000004 45.263500000000008 1.0000000180025095e-35 21.905500000000004 20.462500000000002 20.830500000000004 53.718000000000011 447.13550000000004 22.310500000000001 108.78950000000002 23.093500000000002 479.75350000000003 21.127500000000001 1118.8550000000002 532.1110000000001 492.78850000000006 22.176500000000001
decision_type=2 2 2 2 2 2 2 2 2 2 2 2 2 2 2 2 2 2 2 2 2 2 2 2 2 2 2 2 2 2
left_child=1 6 14 -4 7 8 9 11 -5 12 26 28 15 -14 16 -1 -3 -8 19 -19 21 -16 -20 -18 -7 -22 27 -6 -2 -12
right_child=4 2 3 5 10 24 17 -9 -10 -11 29 -13 13 -15 20 -17 23 18 22 -21 25 -23 -24 -25 -26 -27 -28 -29 -30 -31
leaf_value=0.085906320689029481 0.48489253151584677 -0.013541031769994306 0.37501105240413124 0.61537967977615504 0.98884861020074377 0.1707453020594337 -0.038833764666900104 0.0025218551550866466 0.087610050574666143 0.12206285436423546 1.0089463382748003 1.0011976289749147 0.033486615273008828 -0.020093464233800082 0.049214886637138466 -0.034144870135910957 0.021066715626959821 -0.013173742816268749 0.078545657131376914 1.0598392945237276 0.089824102536008199 0.26064829998546174 0.013126648274117834 0.12969208635713744 0.43831438747877932 0.020791383067385066 0.77595125802672738 0.66704139947891239 0.62691825941989299 1.1468270321687064
leaf_weight=172 71 2276 392 26 69 22 482 26 1927 187 141 20 1052 7189 140 28599 2598 255 344 41 340 90 3428 115 97 842 101 20 76 48
leaf_count=172 71 2276 392 26 69 22 482 26 1927 187 141 20 1052 7189 140 28599 2598 255 344 41 340 90 3428 115 97 842 101 20 76 48
internal_value=4.91227e-10 -0.00907682 0.055874 0.15345 0.803172 0.111533 -0.0228685 0.52934 0.0946362 -0.0281763 0.942616 0.61136 -0.0289354 -0.0132537 0.018313 -0.0334272 0.00778243 0.0205262 0.0275595 0.135453 0.0555205 0.13195 0.0190928 0.0256712 0.388848 0.0406485 0.841802 0.916532 0.558321 1.04396
internal_weight=51186 50614 8865 2464 572 2072 41749 193 1953 37199 379 167 37012 8241 6401 28771 4989 4550 4068 296 1412 230 3772 2713 119 1182 190 89 147 189
internal_count=51186 50614 8865 2464 572 2072 41749 193 1953 37199 379 167 37012 8241 6401 28771 4989 4550 4068 296 1412 230 3772 2713 119 1182 190 89 147 189
is_linear=0
shrinkage=0.05


Tree=6
num_leaves=31
num_cat=0
split_feature=3 2 3 3 1 3 3 0 0 3 1 1 2 0 1 3 0 0 3 3 1 0 1 0 1 2 2 2 1 0
split_gain=134710 16389 10690.1 7884.75 7861.3 4155.83 3692.11 3010.53 1783.34 1397.91 1246.53 1100.46 916.769 1096.25 871.308 746.416 738.642 1691.35 16283.4 698.266 682.678 847.456 671.182 621.982 564.777 543.209 494.455 337.535 579.679 326.039
threshold=62.244500000000009 698.24450000000013 47.201500000000003 63.493500000000004 452.38700000000006 52.354500000000009 51.14950000000001 22.347500000000004 22.573500000000006 64.44550000000001 500.00250000000005 464.99400000000009 4.5980000000000008 19.968500000000002 749.44150000000013 40.453500000000012 20.503500000000006 20.830500000000004 53.718000000000011 45.263500000000008 447.13550000000004 22.310500000000001 502.85350000000005 21.663500000000003 478.95350000000002 879.29000000000008 364.88150000000002 1118.8550000000002 532.1110000000001 21.146500000000003
decision_type=2 2 2 2 2 2 2 2 2 2 2 2 2 2 2 2 2 2 2 2 2 2 2 2 2 2 2 2 2 2
left_child=1 6 19 7 -4 11 8 10 12 27 -2 -6 13 -1 -14 22 -8 18 -18 23 21 -21 -10 -3 -7 -25 -19 28 -5 -22
right_child=3 2 4 9 5 24 16 -9 15 -11 -12 -13 14 -15 -16 -17 17 26 -20 20 29 -23 -24 25 -26 -27 -28 -29 -30 -31
leaf_value=0.17324396259779853 0.53040473834186996 -0.016157212577040805 0.36158035376921616 0.93940617588983066 0.12833183264700507 0.16554038853480901 -0.036118578323832071 0.0023957623147557918 0.15410883805472764 0.99176548498648198 0.95113773822784431 0.047300132828914258 -0.029304112557125478 -0.011541677740487186 0.024689096717437718 0.0035762201807546441 -0.011172851616202436 0.0039971036094141798 1.055022153825987 0.0251201623094243 0.092338535162900068 0.25469744164835323 0.033359275276872345 0.05547626882556899 0.41141398717959721 0.0061941923966211503 0.039548749138102024 0.73715368875182508 0.63368931889533997 0.023661928247126221
leaf_weight=123 147 1402 376 69 842 29 497 26 181 189 20 834 36070 231 763 1107 243 2195 42 74 223 88 316 935 120 1391 1764 101 20 768
leaf_count=123 147 1402 376 69 842 29 497 26 181 189 20 834 36070 231 763 1107 243 2195 42 74 223 88 316 935 120 1391 1764 101 20 768
internal_value=5.59525e-10 -0.00862298 0.0619173 0.763013 0.153398 0.110506 -0.0200988 0.502873 -0.0251895 0.895486 0.580792 0.0880094 -0.027416 0.0526635 -0.0281856 0.0264302 0.021553 0.0283067 0.145951 0.0206659 0.0546714 0.149829 0.0773345 0.0101486 0.363559 0.0260045 0.0198377 0.799712 0.870706 0.0391159
internal_weight=51186 50614 7082 572 2201 1825 43532 193 38791 379 167 1676 37187 354 36833 1604 4741 4244 285 4881 1153 162 497 3728 149 2326 3959 190 89 991
internal_count=51186 50614 7082 572 2201 1825 43532 193 38791 379 167 1676 37187 354 36833 1604 4741 4244 285 4881 1153 162 497 3728 149 2326 3959 190 89 991
is_linear=0
shrinkage=0.05


Tree=7
num_leaves=31
num_cat=0
split_feature=3 2 3 1 3 3 3 0 0 0 3 1 0 2 2 3 0 0 3 0 1 0 3 0 1 0 2 1 2 1
split_gain=121576 14928.4 10568.8 7453.23 7115.99 3194.52 3145.23 2717.01 2544.79 1402.97 1261.61 1125 889.654 1280.4 862.342 832.329 736.909 1173.66 13764.7 632.317 559.63 1131.46 529.442 462.626 423.97 374.225 304.625 523.161 276.358 262.077
threshold=62.244500000000009 615.28650000000016 47.201500000000003 453.37750000000005 63.493500000000004 57.092500000000008 51.049000000000007 22.347500000000004 20.772500000000004 23.141500000000004 64.44550000000001 500.00250000000005 21.260500000000004 217.44500000000002 4.5980000000000008 45.263500000000008 20.503500000000006 20.830500000000004 53.718000000000011 21.905500000000004 449.88400000000007 22.310500000000001 54.543500000000002 23.093500000000002 479.75350000000003 21.127500000000001 1118.8550000000002 532.1110000000001 1086.5550000000001 507.27100000000002
decision_type=2 2 2 2 2 2 2 2 2 2 2 2 2 2 2 2 2 2 2 2 2 2 2 2 2 2 2 2 2 2
left_child=1 6 15 -4 7 8 9 11 -5 12 26 28 14 -14 -1 19 -8 18 -18 -3 21 -17 -19 -21 -7 -22 27 -6 -2 -12
right_child=4 2 3 5 10 24 16 -9 -10 -11 29 -13 13 -15 -16 20 17 22 -20 23 25 -23 -24 -25 -26 -27 -28 -29 -30 -31
leaf_value=0.05010982975482952 0.36849679470062258 -0.012161622981351913 0.33865750720914534 0.57693949394429533 0.89243587410968284 0.15424512868577786 -0.035227166890460293 0.0022759742040831883 0.078950604007170549 0.11101771217178216 1.0506687319555947 0.90358085989952086 0.052626570749261192 -0.017501229858111669 -0.030923461557419825 0.05027300410575071 -0.01135347854605941 0.043973196970104808 0.99648291755181084 0.01923261094259766 0.086229986949464349 0.23591534618858823 0.0045784045287927452 0.12171317027152882 0.39736142428879884 0.013171108320709347 0.70029602806166846 0.6020048666000366 0.53859932606036842 0.91022422379010348
leaf_weight=332 30 2276 392 26 69 22 574 26 1927 187 43 20 727 6217 29591 315 258 1284 39 2598 228 111 2540 115 97 758 101 20 117 146
leaf_count=332 30 2276 392 26 69 22 574 26 1927 187 43 20 727 6217 29591 315 258 1284 39 2598 228 111 2540 115 97 758 101 20 117 146
internal_value=1.37374e-10 -0.00819183 0.0507366 0.138729 0.724863 0.100905 -0.0207047 0.47773 0.0855803 -0.0255898 0.850711 0.551752 -0.0262827 -0.0101592 -0.0300244 0.0168646 0.0178496 0.0252425 0.120989 0.0072727 0.0507555 0.0986446 0.0178062 0.0235766 0.352416 0.030065 0.759727 0.82717 0.503885 0.942177
internal_weight=51186 50614 8865 2464 572 2072 41749 193 1953 37054 379 167 36867 6944 29923 6401 4695 4121 297 4989 1412 426 3824 2713 119 986 190 89 147 189
internal_count=51186 50614 8865 2464 572 2072 41749 193 1953 37054 379 167 36867 6944 29923 6401 4695 4121 297 4989 1412 426 3824 2713 119 986 190 89 147 189
is_linear=0
shrinkage=0.05


Tree=8
num_leaves=31
num_cat=0
split_feature=3 2 3 1 3 3 3 0 0 0 3 1 3 2 0 1 0 0 0 3 3 3 0 2 1 0 0 1 2 1
split_gain=109722 13472.9 9555.49 6629.66 6422.18 2838.57 2810.04 2452.1 2265.36 1287.07 1138.61 1015.31 799.578 766.006 996.494 669.448 1026 665.061 1059.23 12422.7 650.339 605.54 571.41 484.622 474.153 419.342 400.82 382.633 274.924 472.152
threshold=62.244500000000009 615.28650000000016 47.593500000000013 452.08650000000006 63.493500000000004 51.049000000000007 57.092500000000008 22.347500000000004 20.772500000000004 22.573500000000006 64.44550000000001 500.00250000000005 45.263500000000008 4.5980000000000008 19.968500000000002 448.44100000000009 22.238500000000005 20.503500000000006 20.830500000000004 53.718000000000011 47.994500000000009 40.226500000000009 21.886500000000002 108.78950000000002 502.85350000000005 23.093500000000002 21.127500000000001 479.75350000000003 1118.8550000000002 532.1110000000001
decision_type=2 2 2 2 2 2 2 2 2 2 2 2 2 2 2 2 2 2 2 2 2 2 2 2 2 2 2 2 2 2
left_child=1 5 12 -4 7 9 8 11 -5 13 28 -2 22 14 -1 16 -14 -7 19 -19 -15 24 -3 -20 -11 -24 -17 -8 29 -6
right_child=4 2 3 6 10 17 27 -9 -10 21 -12 -13 15 20 -16 26 -18 18 23 -21 -22 -23 25 -25 -26 -27 -28 -29 -30 -31
leaf_value=0.16207627031830996 0.47869028039530026 -0.011859387795954308 0.33426092515672962 0.54809251662630298 0.84781406858693009 -0.033465809457146854 0.14653287448666313 0.0021621754106420739 0.078228227352510671 0.14318197237041136 0.89506834499419685 0.85840178966522229 0.044971260970187894 -0.030212059432618395 -0.014368360157746935 0.079978875664528465 0.22420942916870118 -0.010785804631760662 0.073349671607306821 0.94665877467546711 -0.013215485104937561 0.0015008013551351211 0.018089342404286363 0.011301668805712949 0.032349200082472121 0.1156275119340938 0.012090703202694753 0.37749335175936988 0.66528121126760353 0.57190463304519656
leaf_weight=123 147 2237 350 26 69 574 22 26 1920 156 189 20 221 28351 229 296 125 258 346 39 7022 920 2637 3478 253 115 819 97 101 20
leaf_count=123 147 2237 350 26 69 574 22 26 1920 156 189 20 221 28351 229 296 125 258 346 39 7022 920 2637 3478 253 115 819 97 101 20
internal_value=3.27719e-10 -0.00778224 0.0481997 0.133035 0.688619 -0.0196695 0.0989294 0.453843 0.084506 -0.0243103 0.808176 0.524165 0.0164357 -0.0261077 0.047287 0.0489671 0.109725 0.0169571 0.0239804 0.114939 -0.026838 0.0240041 0.00690906 0.0169158 0.0746228 0.0221652 0.030113 0.334795 0.72174 0.785812
internal_weight=51186 50614 8865 2415 572 41749 2065 193 1946 37054 379 167 6450 35725 352 1461 346 4695 4121 297 35373 1329 4989 3824 409 2752 1115 119 190 89
internal_count=51186 50614 8865 2415 572 41749 2065 193 1946 37054 379 167 6450 35725 352 1461 346 4695 4121 297 35373 1329 4989 3824 409 2752 1115 119 190 89
is_linear=0
shrinkage=0.05


Tree=9
num_leaves=31
num_cat=0
split_feature=3 2 3 1 3 3 3 0 0 0 3 1 3 2 0 1 1 0 0 3 0 1 3 0 1 0 0 1 1 2
split_gain=99024.4 12159.3 8623.83 5987.37 5796.02 2564.84 2561.81 2213.02 2058.05 1161.58 1027.59 916.317 721.619 707.775 2288.29 641.954 604.177 925.965 600.217 977.422 2148.5 1530.3 546.5 516.619 427.923 373.839 361.74 345.327 253.249 248.119
threshold=62.244500000000009 615.28650000000016 47.593500000000013 453.37750000000005 63.493500000000004 57.092500000000008 51.049000000000007 22.347500000000004 20.772500000000004 22.573500000000006 64.44550000000001 500.00250000000005 45.263500000000008 1.0000000180025095e-35 19.938500000000001 761.51950000000011 448.44100000000009 22.238500000000005 20.503500000000006 55.033500000000011 23.141500000000004 547.19250000000022 40.226500000000009 21.955500000000004 502.85350000000005 23.093500000000002 21.127500000000001 479.75350000000003 492.78850000000006 1118.8550000000002
decision_type=2 2 2 2 2 2 2 2 2 2 2 2 2 2 2 2 2 2 2 2 2 2 2 2 2 2 2 2 2 2
left_child=1 6 12 -4 7 8 9 11 -5 13 29 28 23 14 -1 -15 17 -14 -8 21 -21 -20 24 -3 -11 -25 -18 -7 -2 -6
right_child=4 2 3 5 10 27 18 -9 -10 22 -12 -13 16 15 -16 -17 26 -19 19 20 -22 -23 -24 25 -26 -27 -28 -29 -30 -31
leaf_value=0.36965619976011421 0.3868568994629551 -0.01056929978265083 0.31088180503737867 0.52068790816343746 0.74652134595292341 0.13920623064041138 -0.031792517780011541 0.0020540667617192066 0.072804011548800618 0.13602287537800387 0.85031492016302845 0.81548167943954475 0.042722697429239384 -0.026161196830347112 -0.034730328908262324 0.027056739441084374 0.075979931930263825 0.21299895982742312 0.08278833310094133 -0.0060408317060296011 0.27909279719871632 -0.01906397574429735 0.0014257602775773117 0.017675300015388581 0.030731739092612703 0.10984613740067606 0.011486168607420679 0.3586186898123358 0.51818760947177289 0.63201714883936511
leaf_weight=48 71 2338 372 26 89 22 574 26 1898 156 189 20 221 34972 129 576 296 125 1197 2323 68 533 920 2536 253 115 819 97 76 101
leaf_count=48 71 2338 372 26 89 22 574 26 1898 156 189 20 221 34972 129 576 296 125 1197 2323 68 533 920 2536 253 115 819 97 76 101
internal_value=1.98547e-10 -0.00739313 0.0457898 0.126384 0.654188 0.0927893 -0.018686 0.431151 0.0788565 -0.0230948 0.767767 0.497956 0.0156139 -0.0248023 0.0749338 -0.0252989 0.0465187 0.104239 0.0161093 0.0227814 0.00206836 0.0514084 0.0228039 0.00656361 0.0708917 0.0216737 0.0286074 0.318055 0.454756 0.685653
internal_weight=51186 50614 8865 2415 572 2043 41749 193 1924 37054 379 167 6450 35725 177 35548 1461 346 4695 4121 2391 1730 1329 4989 409 2651 1115 119 147 190
internal_count=51186 50614 8865 2415 572 2043 41749 193 1924 37054 379 167 6450 35725 177 35548 1461 346 4695 4121 2391 1730 1329 4989 409 2651 1115 119 147 190
is_linear=0
shrinkage=0.05


Tree=10
num_leaves=31
num_cat=0
split_feature=3 2 3 3 1 3 3 1 0 0 0 2 1 3 1 2 1 2 0 3 1 0 3 0 2 1 0 2 0 1
split_gain=89369.5 11004.3 6623.58 5230.91 5098.44 2616.45 2610.94 7513.73 1997.25 1213.43 1147.94 2338 1022.39 927.402 826.976 826.86 695.024 648.739 2065.18 486.351 485.161 790.838 936.82 447.938 430.189 317.019 257.029 245.302 719.051 239.597
threshold=62.244500000000009 748.41350000000011 47.201500000000003 63.493500000000004 452.08650000000006 52.354500000000009 49.948500000000003 784.04200000000014 22.347500000000004 22.108500000000003 20.503500000000006 462.03050000000007 458.53250000000008 64.44550000000001 500.00250000000005 263.87050000000005 514.33100000000002 1.0000000180025095e-35 19.938500000000001 41.854500000000009 450.68800000000005 22.193500000000004 44.308500000000002 22.205500000000004 568.01400000000012 478.95350000000002 21.886500000000002 919.1450000000001 23.141500000000004 511.84750000000003
decision_type=2 2 2 2 2 2 2 2 2 2 2 2 2 2 2 2 2 2 2 2 2 2 2 2 2 2 2 2 2 2
left_child=1 6 20 8 26 12 9 10 14 17 11 -8 -6 -5 -2 23 -12 18 -1 -17 21 -3 -23 -11 -19 -7 -4 28 -22 -15
right_child=3 2 4 13 5 25 7 -9 -10 15 16 -13 -14 29 -16 19 -18 24 -20 -21 27 22 -24 -25 -26 -27 -28 -29 -30 -31
leaf_value=0.35117337349802258 0.43201798403344188 0.012432738302082746 0.31775997252787574 0.65137066364288332 0.15321325329881552 0.12422442720049905 -0.033621655659835797 0.9562882741292319 0.0019513637543870851 0.30680414259433753 0.041623199523329157 0.51024203538894664 0.052459886900648713 0.88465217315789424 0.77470761418342593 0.018166184663491288 0.0053047477620166324 -0.026246494059282022 -0.032993813563686934 -0.018394567389503399 0.018184683247080179 0.03442567879960777 0.18943611596549692 0.063356842156868529 -0.0023423831380972038 0.33563047584734468 0.21409775702158612 -0.005842405057361312 0.2829405440733983 0.76656099024826929
leaf_weight=48 147 558 295 190 317 21 1652 21 26 20 2239 20 1224 66 20 1619 3200 30954 129 2076 1880 214 179 342 2004 114 75 1387 26 123
leaf_count=48 147 558 295 190 317 21 1652 21 26 20 2239 20 1224 66 20 1619 3200 30954 129 2076 1880 214 179 342 2004 114 75 1387 26 123
internal_value=8.16651e-11 -0.00702347 0.0548649 0.621479 0.128762 0.0916767 -0.015806 0.011906 0.409593 -0.0211201 0.00911706 -0.0271161 0.0731859 0.729379 0.473059 0.00469018 0.0202555 -0.0242803 0.0711871 -0.00237512 0.0192398 0.0506978 0.105028 0.076807 -0.024793 0.302745 0.296747 0.0101549 0.0217963 0.807799
internal_weight=51186 50614 6290 572 2046 1676 44324 7132 193 37192 7111 1672 1541 379 167 4057 5439 33135 177 3695 4244 951 393 362 32958 135 370 3293 1906 189
internal_count=51186 50614 6290 572 2046 1676 44324 7132 193 37192 7111 1672 1541 379 167 4057 5439 33135 177 3695 4244 951 393 362 32958 135 370 3293 1906 189
is_linear=0
shrinkage=0.05


Tree=11
num_leaves=31
num_cat=0
split_feature=3 2 3 1 3 3 3 0 0 0 2 1 1 1 1 1 3 3 2 1 0 3 0 1 0 1 0 3 0 2
split_gain=80656 9970.06 7062.83 4826.47 4720.89 2124.58 2077.03 1802.52 1775.89 1042.22 861.441 861.191 2036.41 859.65 746.346 663.069 5266.78 645.324 619.552 593.469 617.637 567.038 1930.44 1190.83 4316.63 819.254 456.357 428.017 347.124 334.564
threshold=62.244500000000009 615.28650000000016 47.836500000000008 452.08650000000006 63.493500000000004 51.586000000000006 57.092500000000008 22.347500000000004 20.772500000000004 21.075500000000002 1118.8550000000002 478.95350000000002 509.14350000000007 571.31100000000015 500.00250000000005 672.44200000000012 46.256000000000007 45.263500000000008 1.0000000180025095e-35 447.13550000000004 22.193500000000004 55.033500000000011 23.141500000000004 485.47900000000004 20.811500000000006 630.41650000000016 21.886500000000002 60.619500000000009 21.108500000000003 384.89000000000004
decision_type=2 2 2 2 2 2 2 2 2 2 2 2 2 2 2 2 2 2 2 2 2 2 2 2 2 2 2 2 2 2
left_child=1 5 17 -4 7 9 8 14 -5 15 13 -11 -13 -6 -2 18 -17 26 -1 20 -19 23 27 29 -25 -24 -3 -23 -21 -7
right_child=4 2 3 6 10 21 -8 -9 -10 11 -12 12 -14 -15 -16 16 -18 19 -20 28 -22 22 25 24 -26 -27 -28 -29 -30 -31
leaf_value=0.067533701155767886 0.41041707473547284 -0.010999760651377866 0.29036298277801686 0.48412422835826874 0.76282588640848803 -0.044474250247532675 0.28891698266027355 0.0018537951472143714 0.068084635527833059 -0.027754229417116329 0.56784774525330795 0.054554790405426573 -0.012378746050133007 0.42255224704742433 0.73597222924232486 -0.027062747657286779 0.23061821649812675 0.039614554969593888 -0.027662090085514277 0.074592734718477577 0.19318152385029366 -0.0096023906167518429 0.051010340231436274 0.4141020777440349 0.042808131551436243 0.4057092451467747 0.019407134713038579 0.10342749708771021 0.013250344101258927 0.027069401972026366
leaf_weight=172 147 2237 337 26 258 352 119 26 1905 2835 101 1565 4149 20 20 1671 225 140 27116 308 123 2246 27 86 872 41 2752 87 918 305
leaf_count=172 147 2237 337 26 258 352 119 26 1905 2835 101 1565 4149 20 20 1671 225 140 27116 308 123 2246 27 86 872 41 2752 87 918 305
internal_value=-2.45004e-12 -0.0066723 0.0414856 0.115007 0.590405 -0.0168982 0.0861803 0.389114 0.0736864 -0.0205779 0.69291 -0.00522452 0.00595359 0.738346 0.449406 -0.0250755 0.00351648 0.0143945 -0.0270621 0.0432812 0.111435 0.0176756 0.0022668 0.0405837 0.0761393 0.264873 0.00577309 -0.00538739 0.028661 -0.0112614
internal_weight=51186 50614 8865 2387 572 41749 2050 193 1931 37733 379 8549 5714 278 167 29184 1896 6478 27288 1489 263 4016 2401 1615 958 68 4989 2333 1226 657
internal_count=51186 50614 8865 2387 572 41749 2050 193 1931 37733 379 8549 5714 278 167 29184 1896 6478 27288 1489 263 4016 2401 1615 958 68 4989 2333 1226 657
is_linear=0
shrinkage=0.05


Tree=12
num_leaves=31
num_cat=0
split_feature=3 2 3 3 1 3 3 0 0 1 3 1 1 3 2 3 1 3 0 1 1 1 1 3 0 1 1 1 0 0
split_gain=72792 9016.11 5817.64 4260.61 4254.2 2537.34 2010.79 1626.77 1100.97 888.429 781.628 673.577 627.062 8900.72 550 510.842 567.954 476.248 1721.24 1047.64 3230.01 739.376 476.17 400.863 405.113 363.813 357.127 348.739 491.307 318.07
threshold=62.244500000000009 698.24450000000013 47.201500000000003 63.493500000000004 453.37750000000005 52.354500000000009 51.586000000000006 22.347500000000004 22.573500000000006 464.99400000000009 64.44550000000001 500.00250000000005 761.51950000000011 49.294500000000006 4.5980000000000008 40.711500000000008 502.85350000000005 55.033500000000011 23.141500000000004 547.19250000000022 487.16300000000007 630.41650000000016 579.64050000000009 45.263500000000008 23.093500000000002 478.95350000000002 619.55700000000013 447.13550000000004 22.310500000000001 21.048500000000001
decision_type=2 2 2 2 2 2 2 2 2 2 2 2 2 2 2 2 2 2 2 2 2 2 2 2 2 2 2 2 2 2
left_child=1 6 23 7 -4 9 8 11 12 -6 -5 -2 14 -14 -1 16 -10 19 22 20 -8 -20 -19 24 29 -7 -26 28 -25 -3
right_child=3 2 4 10 5 25 17 -9 15 -11 -12 -13 13 -15 -16 -17 -18 18 21 -21 -22 -23 -24 27 26 -27 -28 -29 -30 -31
leaf_value=0.040150897002281395 0.38989623290340919 -0.03130368573825721 0.26279645243241473 0.58664906050029553 0.10012255287616455 0.11982937629880577 -0.00595205289731187 0.0017611057354280585 0.12725773433795071 0.026964445315326793 0.73025813027033726 0.6991736453771592 -0.015627448492942359 0.84200575593858962 -0.021530182307579797 0.0014135415337174588 0.02291448545963605 -0.016673016749381122 0.048459823264016044 -0.021872311424117202 0.15657857469153844 0.38542377948760986 0.034957010275242152 0.014373424679443643 -0.041005581737526005 0.31716828592121604 0.15961078370515355 0.030197718807289792 0.18917550424283203 0.010820289579150906
leaf_weight=365 147 524 392 190 826 29 726 26 202 834 189 20 554 32 36731 1083 368 1755 27 521 528 41 599 74 31 120 78 991 88 3095
leaf_count=365 147 524 392 190 826 29 726 26 202 834 189 20 554 32 36731 1083 368 1755 27 521 528 41 599 74 31 120 78 991 88 3095
internal_value=5.4595e-11 -0.00633868 0.0459817 0.560885 0.113467 0.0811082 -0.0148504 0.369658 -0.0183606 0.0633672 0.658264 0.426935 -0.0201126 0.0312058 -0.0209233 0.0215786 0.0598923 0.0180476 0.00362878 0.0377222 0.0624819 0.251629 -0.00353521 0.0155503 0.00758158 0.27876 0.102555 0.0413157 0.109328 0.0047211
internal_weight=51186 50614 7082 572 2201 1809 43532 193 39335 1660 379 167 37682 586 37096 1653 570 4197 2422 1775 1254 68 2354 4881 3728 149 109 1153 162 3619
internal_count=51186 50614 7082 572 2201 1809 43532 193 39335 1660 379 167 37682 586 37096 1653 570 4197 2422 1775 1254 68 2354 4881 3728 149 109 1153 162 3619
is_linear=0
shrinkage=0.05


Tree=13
num_leaves=31
num_cat=0
split_feature=3 2 3 1 3 3 3 0 0 0 2 1 0 2 1 1 3 0 0 3 1 0 2 0 1 0 0 1 1 0
split_gain=65694.8 8190.17 5744.49 3932.78 3845.2 1732.69 1713.91 1468.16 1264.12 891.225 731.294 771.019 617.663 1113.29 616.688 600.177 517.495 453.521 851.087 10733.5 438.662 730.903 431.533 389.196 315.167 282.481 275.264 245.564 231.053 227.58
threshold=62.244500000000009 623.88250000000005 47.593500000000013 452.08650000000006 63.493500000000004 51.049000000000007 57.092500000000008 22.347500000000004 20.772500000000004 23.228500000000004 1118.8550000000002 571.31100000000015 21.260500000000004 217.44500000000002 496.10150000000004 761.51950000000011 45.263500000000008 20.503500000000006 20.830500000000004 53.718000000000011 449.88400000000007 22.238500000000005 108.78950000000002 21.863500000000005 480.44900000000007 23.093500000000002 22.176500000000001 482.04300000000006 498.55900000000003 21.798500000000001
decision_type=2 2 2 2 2 2 2 2 2 2 2 2 2 2 2 2 2 2 2 2 2 2 2 2 2 2 2 2 2 2
left_child=1 5 16 -4 7 9 8 14 -5 12 11 26 15 -14 -2 -1 23 -7 19 -19 21 -18 -20 28 -22 -25 -6 -8 -3 -12
right_child=4 2 3 6 10 17 27 -9 -10 -11 29 -13 13 -15 -16 -17 20 18 22 -21 24 -23 -24 25 -26 -27 -28 -29 -30 -31
leaf_value=-0.023389367249305862 0.3391681808286009 -0.00034146289062247839 0.25945278658185689 0.42693160225947696 0.65888410071109205 -0.028358004517157205 0.14290697403973149 0.0016730501728418929 0.061732635145385684 0.0964568392669191 0.45059602683590305 0.3681429171562195 0.052573429940187856 -0.012736813899933946 0.54457970239497999 0.031005619095219664 0.039176679251484277 -0.016248569231437044 0.066071426961907445 0.87372576554234227 -0.0093026609480858034 0.18164255286371986 0.0075544165718557741 0.014843287206881715 0.047039412749058949 0.095601701070513356 0.77503600120544436 0.30704712424167369 -0.037191905946472398 0.60475544318174712
leaf_weight=29431 113 1588 350 24 188 574 31 26 1869 167 62 20 727 6368 54 516 298 258 346 39 451 129 3523 2593 552 113 70 86 581 39
leaf_count=29431 113 1588 350 24 188 574 31 26 1869 167 62 20 727 6368 54 516 298 258 346 39 451 129 3523 2593 552 113 70 86 581 39
internal_value=-3.67838e-10 -0.00602175 0.0382328 0.104775 0.532841 -0.015163 0.0778412 0.351175 0.0663627 -0.0187899 0.625351 0.667214 -0.0193095 -0.0060447 0.405589 -0.0224521 0.0133256 0.0133081 0.019049 0.100617 0.039774 0.0822167 0.0127875 0.00556736 0.0217051 0.0182157 0.690398 0.263557 -0.0102124 0.510123
internal_weight=51186 50614 8665 2360 572 41949 2010 193 1893 37209 379 278 37042 7095 167 29947 6305 4740 4166 297 1430 427 3869 4875 1003 2706 258 117 2169 101
internal_count=51186 50614 8665 2360 572 41949 2010 193 1893 37209 379 278 37042 7095 167 29947 6305 4740 4166 297 1430 427 3869 4875 1003 2706 258 117 2169 101
is_linear=0
shrinkage=0.05


Tree=14
num_leaves=31
num_cat=0
split_feature=3 2 3 1 3 3 3 0 0 0 2 1 1 0 3 1 3 1 0 0 0 3 2 0 0 2 0 1 2 1
split_gain=59289.6 7397.49 5207.17 3536.52 3470.29 1571.85 1500.47 1395.29 1325.02 807.263 659.993 695.844 575.672 543.211 1026.92 529.541 522.1 640.976 645.735 411.579 765.681 9687.02 388.418 351.414 338.633 284.243 248.425 238.587 227.535 217.031
threshold=62.244500000000009 615.28650000000016 48.707500000000003 452.08650000000006 63.493500000000004 51.049000000000007 56.163500000000006 20.772500000000004 22.347500000000004 23.141500000000004 1118.8550000000002 571.31100000000015 500.00250000000005 21.260500000000004 47.035500000000006 668.40300000000013 45.263500000000008 448.44100000000009 21.930500000000006 20.503500000000006 20.830500000000004 53.718000000000011 108.78950000000002 21.955500000000004 21.159500000000005 919.1450000000001 22.176500000000001 481.22800000000007 1086.5550000000001 500.00250000000005
decision_type=2 2 2 2 2 2 2 2 2 2 2 2 2 2 2 2 2 2 2 2 2 2 2 2 2 2 2 2 2 2
left_child=1 5 16 -4 8 9 7 -5 12 13 11 26 28 15 -15 -1 23 18 -18 -7 21 -21 -22 29 -19 -25 -6 -8 -2 -3
right_child=4 2 3 6 10 19 27 -9 -10 -11 -12 -13 -14 14 -16 -17 17 24 -20 20 22 -23 -24 25 -26 -27 -28 -29 -30 -31
leaf_value=-0.023257731581862166 0.22821960449218751 0.00025884124048052855 0.26014398978992159 0.42922818156389098 0.6259398965125389 -0.026940104330241688 0.11375569799341834 0.060399503500467758 0.0015893980645789549 0.085640996889793944 0.48461678948732889 0.34973576664924622 0.63698597431182868 -0.018147233149818139 0.02430105052366676 0.0027976751828705649 0.036551941115286923 0.063848825738046178 0.16532502660806153 -0.015436141370886364 0.062767854871933565 0.83003948231538149 0.0072189235041376755 0.03167019832562442 0.003274825200086531 -0.0014402911378309112 0.7362841980797904 0.2848884502623944 0.38256695983756306 -0.034024975971097354
leaf_weight=27826 30 1705 301 26 188 574 26 1863 26 187 101 20 20 4942 2002 2097 221 316 174 258 346 39 3478 1522 855 1129 70 94 117 633
leaf_count=27826 30 1705 301 26 188 574 26 1863 26 187 101 20 20 4942 2002 2097 221 316 174 258 346 39 3478 1522 855 1129 70 94 117 633
internal_value=1.37891e-10 -0.00572066 0.0357614 0.100314 0.506199 -0.014529 0.076367 0.065476 0.333616 -0.0179824 0.594083 0.633854 0.385309 -0.018508 -0.00590912 -0.0214318 0.013013 0.0381997 0.0932773 0.0127264 0.0182514 0.0955859 0.0122451 0.00510713 0.019621 0.0175692 0.655878 0.24781 0.351067 -0.0090233
internal_weight=51186 50614 8865 2310 572 41749 2009 1889 193 37054 379 278 167 36867 6944 29923 6555 1566 395 4695 4121 297 3824 4989 1171 2651 258 120 147 2338
internal_count=51186 50614 8865 2310 572 41749 2009 1889 193 37054 379 278 167 36867 6944 29923 6555 1566 395 4695 4121 297 3824 4989 1171 2651 258 120 147 2338
is_linear=0
shrinkage=0.05


Tree=15
num_leaves=31
num_cat=0
split_feature=3 2 3 3 1 3 3 1 0 0 1 2 0 1 3 1 2 0 3 1 3 1 0 1 3 1 1 2 1 3
split_gain=53508.8 6707.82 3943.86 3131.94 3081.9 1730.73 1623.51 6000.91 1195.83 821.125 793.404 1365.31 1040.14 781.205 615.728 519.544 490.29 783.068 460.279 454.374 427.038 359.562 499.093 333.685 311.927 246.188 225.948 205.35 199.37 194.072
threshold=62.244500000000009 748.41350000000011 47.201500000000003 63.493500000000004 453.58300000000003 51.956500000000013 49.808500000000002 784.04200000000014 22.347500000000004 22.573500000000006 749.44150000000013 152.61450000000002 20.503500000000006 470.62550000000005 64.44550000000001 500.00250000000005 4.5980000000000008 19.968500000000002 40.711500000000008 494.40350000000007 41.912500000000001 452.08650000000006 21.984500000000004 478.95350000000002 47.994500000000009 624.58050000000014 519.60250000000008 1086.5550000000001 505.512 51.956500000000013
decision_type=2 2 2 2 2 2 2 2 2 2 2 2 2 2 2 2 2 2 2 2 2 2 2 2 2 2 2 2 2 2
left_child=1 6 20 8 29 13 9 10 15 16 12 -12 -8 -6 -5 27 17 -1 19 -11 -3 22 -22 -7 -18 -23 -20 -2 -16 -4
right_child=3 2 4 14 5 23 7 -9 -10 18 11 -13 -14 -15 28 -17 24 -19 26 -21 21 25 -24 -25 -26 -27 -28 -29 -30 -31
leaf_value=0.1430049634095831 0.21680862824122113 -0.019547858296138847 0.23280898499741129 0.50081700714010935 0.069917321173090977 0.12674541539844061 -0.028316453032918798 0.853152488526844 0.0015099277361654319 0.12412192855143185 -0.020435533479407984 0.52461545766796913 0.015970968431837394 -0.015492747210880141 0.73792449165793039 0.60513668239116669 -0.020625056241559178 -0.01455536472022266 -0.034742817575705874 0.026132175877398439 0.015444313688498482 0.0087493818092284036 0.08622788075944815 0.24088677900710276 -0.0069382867960466992 0.077678218785075165 0.014973188324394999 0.36343861105095626 0.60422617943056167 0.072988761700689797
leaf_weight=122 30 725 378 190 1028 118 1741 21 26 165 27 20 5559 362 34 20 30177 223 345 418 543 2379 460 140 4829 137 677 117 155 20
leaf_count=122 30 725 378 190 1028 118 1741 21 26 165 27 20 5559 362 34 20 30177 223 345 418 543 2379 460 140 4829 137 677 117 155 20
internal_value=3.59464e-11 -0.00543463 0.0428846 0.480889 0.0999063 0.0697492 -0.0122916 0.00913958 0.316936 -0.0165644 0.00672713 0.211501 0.00540872 0.0476738 0.564379 0.366044 -0.0181524 0.0411616 0.0184137 0.0538651 0.0153948 0.0225939 0.0479074 0.188683 -0.018737 0.0125027 -0.00180961 0.333514 0.628278 0.224778
internal_weight=51186 50614 6290 572 2046 1648 44324 7368 193 36956 7347 47 7300 1390 379 167 35351 345 1605 583 4244 3519 1003 258 35006 2516 1022 147 189 398
internal_count=51186 50614 6290 572 2046 1648 44324 7368 193 36956 7347 47 7300 1390 379 167 35351 345 1605 583 4244 3519 1003 258 35006 2516 1022 147 189 398
is_linear=0
shrinkage=0.05


Tree=16
num_leaves=31
num_cat=0
split_feature=3 2 3 3 1 3 3 0 1 0 2 1 3 1 0 2 1 1 0 1 0 3 0 1 0 1 0 0 0 1
split_gain=48291.7 6115.34 4253.31 2826.57 2735.76 1281.66 1220.65 1079.23 999.051 680.038 559.793 621.09 486.237 663.332 485.197 1012.47 488.189 483.904 454.207 351.284 331.822 649.701 1580.23 1235.37 323.33 308.271 247.486 218.884 208.072 191.435
threshold=62.244500000000009 623.88250000000005 49.246500000000005 63.493500000000004 452.08650000000006 51.049000000000007 57.092500000000008 22.347500000000004 691.67750000000012 23.228500000000004 1118.8550000000002 571.31100000000015 45.263500000000008 447.13550000000004 21.260500000000004 211.53800000000004 672.44200000000012 496.10150000000004 21.780500000000004 519.60250000000008 20.462500000000002 55.033500000000011 23.141500000000004 547.19250000000022 23.093500000000002 619.55700000000013 21.227500000000003 22.176500000000001 21.756500000000006 482.04300000000006
decision_type=2 2 2 2 2 2 2 2 2 2 2 2 2 2 2 2 2 2 2 2 2 2 2 2 2 2 2 2 2 2
left_child=1 5 12 7 -4 9 8 17 -6 14 11 27 24 18 16 -16 -1 -2 -14 -15 -7 23 -23 -22 26 -26 -3 -5 -12 -8
right_child=3 2 4 10 6 20 29 -9 -10 -11 28 -13 13 19 15 -17 -18 -19 -20 -21 21 22 -24 -25 25 -27 -28 -29 -30 -31
leaf_value=-0.021124961979377091 0.28890476258455128 -0.020878736623844155 0.23820440347961319 0.56549335806927781 0.057584636720966614 -0.024791764784737838 0.12165794117421272 0.0014344313611777931 0.41294674065895381 0.084489194162658418 0.36704859373704446 0.30436439275741578 0.030821367476880551 0.030579094947732838 0.052530006995921197 -0.01109271857851811 0.004488298692760944 0.47086307373311787 0.15561244334493365 -0.050593716558685768 0.066671159049451936 -0.0076863764497365917 0.2368396133184433 -0.02364785615858887 -0.034895554493580547 0.1437097034775294 0.0082983083812551098 0.66906920569283623 0.51075577586889265 0.26658289349356362
leaf_weight=27954 113 895 283 188 1783 558 31 26 20 167 53 20 125 1136 693 6402 1993 54 175 151 1240 2329 68 545 35 78 3867 70 48 86
leaf_count=27954 113 895 283 188 1783 558 31 26 20 167 53 20 125 1136 693 6402 1993 54 175 151 1240 2329 68 545 35 78 3867 70 48 86
internal_value=2.28382e-10 -0.0051629 0.0330774 0.456844 0.0930739 -0.0130618 0.0716822 0.301089 0.0615265 -0.0161812 0.53616 0.572787 0.0126237 0.0366623 -0.016635 -0.00487841 -0.0194204 0.347742 0.103616 0.0210553 0.0114249 0.0162572 -0.000749469 0.0390948 0.00479817 0.0883895 0.00281459 0.593595 0.435345 0.228184
internal_weight=51186 50614 8665 572 2203 41949 1920 193 1803 37209 379 278 6462 1587 37042 7095 29947 167 300 1287 4740 4182 2397 1785 4875 113 4762 258 101 117
internal_count=51186 50614 8665 572 2203 41949 1920 193 1803 37209 379 278 6462 1587 37042 7095 29947 167 300 1287 4740 4182 2397 1785 4875 113 4762 258 101 117
is_linear=0
shrinkage=0.05


Tree=17
num_leaves=31
num_cat=0
split_feature=3 2 3 3 1 3 3 0 0 1 2 3 3 1 2 3 1 1 0 3 0 1 1 1 1 3 1 1 0 1
split_gain=43583.3 5521.63 3907.19 2550.98 2439.45 1254.15 1140.28 974.008 709.372 659.134 557.034 519.291 470.027 7171.7 496.191 457.677 585.718 443.817 410.515 382.037 1416.71 874.141 2620.42 674.351 379.693 374.229 357.008 324.525 294.4 280.412
threshold=62.244500000000009 632.11950000000013 49.246500000000005 63.493500000000004 453.58300000000003 52.560500000000012 51.586000000000006 22.347500000000004 22.573500000000006 458.53250000000008 673.9670000000001 64.44550000000001 47.994500000000009 749.44150000000013 1.0000000180025095e-35 45.263500000000008 447.13550000000004 500.00250000000005 21.780500000000004 55.033500000000011 23.141500000000004 547.19250000000022 487.16300000000007 630.41650000000016 579.64050000000009 40.453500000000012 493.57700000000006 519.60250000000008 23.093500000000002 562.54300000000012
decision_type=2 2 2 2 2 2 2 2 2 2 2 2 2 2 2 2 2 2 2 2 2 2 2 2 2 2 2 2 2 2
left_child=1 6 15 7 -4 9 8 17 12 -6 -7 -5 14 -14 -1 28 18 -2 -17 21 24 22 -8 -22 -21 26 -10 -18 -3 -30
right_child=3 2 4 11 5 10 19 -9 25 -11 -12 -13 13 -15 -16 16 27 -19 -20 20 23 -23 -24 -25 -26 -27 -28 -29 29 -31
leaf_value=0.064190623820838275 0.30028889373857148 0.0022843341377568409 0.21933800488997887 0.45097951161234007 0.1179292616210994 0.052655113001498555 -0.0091472061272305765 0.0013627099177728479 0.12847491121220012 0.038142462975014071 0.23529218594393628 0.5680338396597161 -0.0083781415248143018 0.76621060570081079 -0.019782280970564139 0.025575189734809101 0.030036495631720755 0.55133667752146731 0.14783182001113893 -0.018264381291333422 0.030967771565472643 -0.02429726931708865 0.14176477310341226 0.35277339830631166 0.028046534196210594 0.001343370484952433 0.030032974835316126 -0.048979421271145171 -0.067706415926416727 0.12487152714407845
leaf_weight=177 147 4621 311 190 321 58 681 26 124 1337 149 189 7641 30 28776 113 1120 20 175 1745 27 500 498 41 593 958 358 147 24 89
leaf_count=177 147 4621 311 190 321 58 681 26 124 1337 149 189 7641 30 28776 113 1120 20 175 1745 27 500 498 41 593 958 358 147 24 89
internal_value=1.0961e-10 -0.00490475 0.0319462 0.434002 0.089696 0.0680774 -0.0123057 0.286034 -0.0149999 0.0535897 0.184119 0.509352 -0.0163533 -0.00534885 -0.0192689 0.0119647 0.0354993 0.330354 0.0998631 0.0127983 2.49745e-05 0.0311024 0.0545968 0.224998 -0.00651829 0.0194234 0.0553583 0.0208689 0.00423416 0.08397
internal_weight=51186 50614 8465 572 2176 1865 42149 193 38064 1658 207 379 36624 7671 28953 6289 1555 167 288 4085 2406 1679 1179 68 2338 1440 482 1267 4734 113
internal_count=51186 50614 8465 572 2176 1865 42149 193 38064 1658 207 379 36624 7671 28953 6289 1555 167 288 4085 2406 1679 1179 68 2338 1440 482 1267 4734 113
is_linear=0
shrinkage=0.05


Tree=18
num_leaves=31
num_cat=0
split_feature=3 2 3 1 0 3 3 0 3 0 2 3 2 0 2 0 1 3 0 1 1 1 3 3 1 0 1 0 0 2
split_gain=39333.9 4983.37 3468.13 2385.82 2302.58 1665.59 1064.88 1063.53 1071.54 650.03 714.926 3246.79 565.981 501.963 429.877 1807.18 442.296 387.457 1280.72 846.056 2743.52 608.602 367.217 364.355 468.458 493.657 359.705 273.9 262.102 243.533
threshold=62.244500000000009 615.28650000000016 48.707500000000003 450.24750000000006 22.573500000000006 63.493500000000004 51.586000000000006 20.772500000000004 56.163500000000006 21.075500000000002 211.53800000000004 47.994500000000009 1118.8550000000002 23.228500000000004 1.0000000180025095e-35 19.938500000000001 646.69900000000018 55.033500000000011 23.141500000000004 547.19250000000022 485.47900000000004 630.41650000000016 60.619500000000009 45.263500000000008 449.88400000000007 21.930500000000006 502.85350000000005 21.886500000000002 21.146500000000003 879.29000000000008
decision_type=2 2 2 2 2 2 2 2 2 2 2 2 2 2 2 2 2 2 2 2 2 2 2 2 2 2 2 2 2 2
left_child=1 6 23 -4 5 26 9 -5 -9 14 11 -11 -7 -12 15 -1 -16 19 22 20 -8 -20 -19 27 25 -25 -2 -3 -26 -29
right_child=4 2 3 7 -6 12 17 8 -10 10 13 -13 -14 -15 16 -17 -18 18 21 -21 -22 -23 -24 24 28 -27 -28 29 -30 -31
leaf_value=0.32125930773715178 0.27818508244266638 -0.0087762099919350672 0.21806222625840258 0.38081041528628423 -0.06706053994130344 0.52942943390932951 -0.010263359764040856 0.049712479195503319 0.20381599394013433 -0.0059946929890362386 -0.009782908411074322 0.21751794729883842 0.39102885416238614 0.07788657717139065 -0.020482113093969353 -0.040069853562501173 0.00084595917247630838 -0.010287800196772617 0.029419381530196582 -0.023071052037799564 0.14844925224420524 0.33513472719890314 0.094406770961894385 0.034343358357732612 0.059797527245245875 0.13814249581760832 0.50374955162405965 0.028270085747623571 0.00012145339227616118 -0.0016197872056716517
leaf_weight=48 152 2237 283 26 24 275 657 1881 120 866 7316 200 101 167 26334 124 2678 2246 27 493 465 41 87 315 236 180 20 1510 835 1242
leaf_count=48 152 2237 283 26 24 275 657 1881 120 866 7316 200 101 167 26334 124 2678 2246 27 493 465 41 87 315 236 180 20 1510 835 1242
internal_value=5.51149e-10 -0.00465951 0.0293876 0.0820692 0.412302 0.433296 -0.0118891 0.0630825 0.0589541 -0.0144942 -0.00236899 0.0359401 0.492253 -0.00782637 -0.0180461 0.0607662 -0.0185134 0.0125881 -0.000149172 0.0315244 0.0555133 0.213748 -0.00638363 0.0108224 0.031863 0.0720885 0.304414 0.00421801 0.0132714 0.0147805
internal_weight=51186 50614 8865 2310 572 548 41749 2027 2001 37733 8549 1066 376 7483 29184 172 29012 4016 2401 1615 1122 68 2333 6555 1566 495 172 4989 1071 2752
internal_count=51186 50614 8865 2310 572 548 41749 2027 2001 37733 8549 1066 376 7483 29184 172 29012 4016 2401 1615 1122 68 2333 6555 1566 495 172 4989 1071 2752
is_linear=0
shrinkage=0.05


Tree=19
num_leaves=31
num_cat=0
split_feature=3 2 3 0 0 3 0 3 0 2 2 1 2 1 3 0 1 2 0 1 2 1 2 2 0 1 1 3 1 1
split_gain=35498.9 4514.9 3061.22 2291.96 2078.08 1503.19 1149.57 2049.27 6422.66 6494.46 1530.32 957.646 711.122 2109.09 2462.69 902.755 988.47 557.145 5034.94 537.641 510.798 467.408 396.304 393.562 658.352 377.968 324.634 298.864 269.166 268.827
threshold=62.244500000000009 793.71850000000006 47.201500000000003 21.886500000000002 22.573500000000006 63.493500000000004 21.075500000000002 53.718000000000011 20.866500000000006 227.50650000000005 195.13600000000005 470.62550000000005 129.63450000000003 514.33100000000002 47.943500000000007 23.141500000000004 630.41650000000016 507.12400000000008 20.347500000000004 448.80500000000001 1118.8550000000002 478.95350000000002 1.0000000180025095e-35 879.29000000000008 21.739500000000003 451.02900000000005 502.85350000000005 47.035500000000006 542.43550000000016 463.35550000000006
decision_type=2 2 2 2 2 2 2 2 2 2 2 2 2 2 2 2 2 2 2 2 2 2 2 2 2 2 2 2 2 2
left_child=1 6 23 19 5 26 7 17 9 -9 -10 29 13 14 -8 27 -17 22 -19 -4 -7 -21 -1 24 -3 -26 -2 -14 -15 -5
right_child=4 2 3 11 -6 20 12 8 10 -11 -12 -13 15 28 -16 16 -18 18 -20 21 -22 -23 -24 -25 25 -27 -28 -29 -30 -31
leaf_value=0.057727884345276419 0.26427582388155557 0.0022308669670798946 0.21507041004837535 0.12106353163573087 -0.063707511639222503 0.50295796186273756 0.048909521684534135 -0.012467263000352044 0.40984049297514419 1.0028484139177534 -0.035047321685938618 -0.035002558563404292 -0.0089779738340155443 0.049510627581274572 0.43417228959176851 0.047575847142892702 0.3043483385512995 0.51693815588175018 -0.0032807977024931463 0.10280994913016786 0.37147740220079328 0.20650571703018861 -0.018395879879250242 0.00082718824794996652 0.12774197345230437 0.042783997181210329 0.47856206297874454 0.0060312177863206529 -0.022207113150152905 0.049973559013021751
leaf_weight=172 152 657 244 204 24 275 104 28 21 36 243 301 7748 203 69 292 43 48 1500 463 101 142 28644 2356 217 330 20 5799 368 382
leaf_count=172 152 657 244 204 24 275 104 28 21 36 243 301 7748 203 69 292 43 48 1500 463 101 142 28644 2356 217 330 20 5799 368 382
internal_value=-2.53168e-10 -0.00442654 0.0392572 0.0936942 0.391687 0.411631 -0.00953156 -0.0150289 0.109279 0.558648 0.000341482 0.0374871 0.00200436 0.0496276 0.202569 -0.000547989 0.0805347 -0.0163717 0.01285 0.152417 0.46764 0.127148 -0.0179415 0.0127116 0.0359671 0.0764876 0.289193 -0.00255306 0.00328974 0.0747216
internal_weight=51186 50614 5296 1736 572 548 45318 30692 328 64 264 887 14626 744 173 13882 335 30364 1548 849 376 605 28816 3560 1204 547 172 13547 571 586
internal_count=51186 50614 5296 1736 572 548 45318 30692 328 64 264 887 14626 744 173 13882 335 30364 1548 849 376 605 28816 3560 1204 547 172 13547 571 586
is_linear=0
shrinkage=0.05


Tree=20
num_leaves=31
num_cat=0
split_feature=3 2 3 1 1 1 3 3 1 1 0 0 0 2 1 1 2 2 0 0 3 1 0 0 3 1 0 0 1 0
split_gain=32037.7 4132.94 2837.53 1905.66 1873.35 1504.28 978.184 881.844 4672.61 1375.71 5385.97 822.273 764.7 674.866 497.865 430.442 423.581 380.819 738.916 353.316 335.544 460.52 471.263 253.445 261.402 241.566 220.579 194.46 160.085 159.82
threshold=62.244500000000009 623.88250000000005 49.246500000000005 588.74600000000021 457.61300000000006 500.80750000000006 52.560500000000012 48.105500000000006 784.04200000000014 636.55850000000009 19.938500000000001 20.503500000000006 22.573500000000006 648.45000000000016 686.4525000000001 448.80500000000001 1086.5550000000001 4.5980000000000008 19.925500000000003 21.529500000000002 45.263500000000008 449.88400000000007 21.780500000000004 23.093500000000002 43.303500000000007 519.60250000000008 21.038500000000003 23.372500000000006 507.27100000000002 21.798500000000001
decision_type=2 2 2 2 2 2 2 2 2 2 2 2 2 2 2 2 2 2 2 2 2 2 2 2 2 2 2 2 2 2
left_child=1 7 20 5 15 19 14 12 9 11 -11 -9 17 -8 -6 -4 28 18 -1 -2 23 22 -22 26 -25 -23 -3 -14 -7 -18
right_child=3 2 4 -5 6 16 13 8 -10 10 -12 -13 27 -15 -16 -17 29 -19 -20 -21 21 25 -24 24 -26 -27 -28 -29 -30 -31
leaf_value=0.14393035650460259 0.25045844456301886 -0.028433855775877342 0.20629071826075279 0.034717050782189916 0.028902561079120839 0.57280756494273311 0.00257783729399814 -0.022445209114119402 0.74607066199893046 0.44468388877263881 0.020623786191038981 0.0057279663487605735 0.019133725310368596 0.19690032324078913 0.23825054198246579 0.11811925799768866 0.30726398521999143 -0.017353921981889796 -0.015290751254984311 0.47384185552597047 0.030952740235802259 0.021798243957877925 0.13077536806160092 -0.017199124840342188 0.1387608247390692 -0.046323297016125253 0.0060403191187220866 0.088030547250224203 0.4701207563349728 0.43699659414069603
leaf_weight=108 154 521 233 39 1372 46 61 4301 21 82 862 6510 936 167 29 341 53 28790 224 20 298 942 196 44 69 151 4241 115 217 43
leaf_count=108 154 521 233 39 1372 46 61 4301 21 82 862 6510 936 167 29 341 53 28790 224 20 298 942 196 44 69 151 4241 115 217 43
internal_value=-1.72726e-10 -0.00420521 0.0272318 0.372102 0.0762359 0.396789 0.0488663 -0.0106988 0.000905357 -0.000425861 0.0574595 -0.00548032 -0.0152278 0.144911 0.033236 0.15391 0.455268 -0.0167399 0.0365041 0.276135 0.0105255 0.0304947 0.0705585 0.00402476 0.0780331 0.0123871 0.00226858 0.0266724 0.488081 0.365373
internal_weight=51186 50614 8665 572 2203 533 1629 41949 11776 11755 944 10811 30173 228 1401 574 359 29122 332 174 6462 1587 494 4875 113 1093 4762 1051 263 96
internal_count=51186 50614 8665 572 2203 533 1629 41949 11776 11755 944 10811 30173 228 1401 574 359 29122 332 174 6462 1587 494 4875 113 1093 4762 1051 263 96
is_linear=0
shrinkage=0.05


Tree=21
num_leaves=31
num_cat=0
split_feature=3 2 3 0 1 3 1 3 3 0 0 1 2 0 0 3 1 0 1 2 2 0 1 2 0 0 0 1 1 2
split_gain=28914 3731.05 2566.52 1739.62 1724.42 1221.21 937.309 943.727 795.982 454.108 433.388 387.002 329.38 572.068 351.192 299.418 429.05 398.653 272.955 270.522 269.542 846.313 287.503 720.108 281.711 241.231 230.616 247.899 218.15 154.563
threshold=62.244500000000009 615.28650000000016 49.246500000000005 22.573500000000006 457.61300000000006 63.493500000000004 691.67750000000012 56.163500000000006 51.049000000000007 21.955500000000004 23.228500000000004 448.80500000000001 4.5980000000000008 19.968500000000002 21.260500000000004 45.263500000000008 449.88400000000007 21.780500000000004 502.85350000000005 639.61450000000002 332.73050000000006 23.141500000000004 514.33100000000002 251.51200000000003 20.592500000000005 21.108500000000003 23.093500000000002 562.54300000000012 533.93250000000012 1086.5550000000001
decision_type=2 2 2 2 2 2 2 2 2 2 2 2 2 2 2 2 2 2 2 2 2 2 2 2 2 2 2 2 2 2
left_child=1 8 15 5 11 18 7 -6 10 19 12 -4 13 -1 -14 26 17 -17 29 -7 22 24 23 -10 -22 -18 28 -28 -3 -2
right_child=3 2 4 -5 6 9 -8 -9 20 -11 -12 -13 14 -15 -16 16 25 -19 -20 -21 21 -23 -24 -25 -26 -27 27 -29 -30 -31
leaf_value=0.12204058047959475 0.13686254421869914 0.0071365595470922766 0.19597618110445947 -0.063165081494177377 0.030984670859418598 0.42310119361328563 0.36294045513090878 0.17657996290673814 0.076914105765959806 0.49197426819139062 0.068392456732917481 0.11242172780939602 -0.015907453481918049 -0.011648193737044607 -0.0034153392021581859 0.031285863494276929 0.060964191333870543 0.12182541120835025 0.43503016620874413 0.31293036924895423 -0.022659471141396301 0.27677179286256431 -0.014027174695748155 -0.02205855017434806 0.025537505498577459 7.8098595488546911e-05 -0.069270007630499703 0.11137683458100484 -0.019918027809379249 0.26354154428986254
leaf_weight=123 30 3956 233 24 1535 139 23 120 340 144 164 342 29591 229 6947 315 198 198 20 93 361 32 1669 400 1893 912 24 91 918 122
leaf_count=123 30 3956 233 24 1535 139 23 120 340 144 164 342 29591 229 6947 315 198 198 20 93 361 32 1669 400 1893 912 24 91 918 122
internal_value=3.76855e-11 -0.00399495 0.0254651 0.353497 0.0715532 0.371745 0.0459468 0.0415414 -0.0102505 0.422228 -0.012708 0.146279 -0.0130686 0.0350669 -0.0135323 0.00976088 0.0284157 0.066231 0.261387 0.378938 0.00914487 0.0214432 -0.00252552 0.0234154 0.0178183 0.0109389 0.00369218 0.0736766 0.00204093 0.238539
internal_weight=51186 50614 8865 572 2253 548 1678 1655 41749 376 37054 575 36890 352 36538 6612 1623 513 172 232 4695 2286 2409 740 2254 1110 4989 115 4874 152
internal_count=51186 50614 8865 572 2253 548 1678 1655 41749 376 37054 575 36890 352 36538 6612 1623 513 172 232 4695 2286 2409 740 2254 1110 4989 115 4874 152
is_linear=0
shrinkage=0.05


Tree=22
num_leaves=31
num_cat=0
split_feature=3 2 3 1 1 1 3 1 1 3 0 3 1 0 2 2 0 0 3 1 0 0 1 1 2 1 1 1 3 0
split_gain=26094.9 3369.98 2312.9 1601.89 1525.99 1232.09 751.911 4224.17 1222.66 4421.29 685.888 684.191 704.431 655.19 349.825 326.512 1474.1 290.986 273.608 374.498 385.678 232.219 229.385 213.724 174.771 170.615 222.027 163.163 156.995 151.266
threshold=62.244500000000009 623.88250000000005 49.246500000000005 588.74600000000021 453.58300000000003 500.80750000000006 48.105500000000006 784.04200000000014 643.00000000000011 49.407500000000006 20.503500000000006 57.092500000000008 691.67750000000012 22.573500000000006 1086.5550000000001 1.0000000180025095e-35 19.938500000000001 21.529500000000002 45.263500000000008 449.88400000000007 21.780500000000004 21.663500000000003 489.52950000000004 519.60250000000008 879.29000000000008 476.9260000000001 483.84300000000007 482.04300000000006 51.956500000000013 21.464500000000005
decision_type=2 2 2 2 2 2 2 2 2 2 2 2 2 2 2 2 2 2 2 2 2 2 2 2 2 2 2 2 2 2
left_child=1 6 18 5 28 17 13 8 10 -10 -8 12 -6 15 -7 16 -1 29 21 20 -20 22 -3 -21 -23 -15 -27 -13 -4 -2
right_child=3 2 4 -5 11 14 7 -9 9 -11 -12 27 -14 25 -16 -17 -18 -19 19 23 -22 24 -24 -25 -26 26 -28 -29 -30 -31
leaf_value=0.28901139963418249 0.24565111748257973 0.00026137954868265368 0.18078836544682481 0.026494263193737239 0.04088099620202848 0.44120041774479613 -0.02013563120775607 0.70956252415974941 0.42150970320952563 0.021793138399726911 0.005483158655577274 0.070729915407155786 0.33930584058165553 -0.037878587461855948 0.32968640799323717 -0.015654598618357884 -0.035555618631747346 0.42868431925773626 0.027840809288386632 0.020064541666878235 0.11814533082806333 0.022195964142792846 -0.040342130171092651 -0.044011037236708683 -0.0015242035184726776 0.14242632579664852 0.026157238367090392 0.20452614787013032 0.035967376381158829 0.10125148244911718
leaf_weight=48 133 1243 291 39 1755 263 4337 21 76 771 6571 31 20 98 96 28945 129 20 298 942 196 1758 483 151 1391 43 910 86 20 21
leaf_count=48 133 1243 291 39 1755 263 4337 21 76 771 6571 31 20 98 96 28945 129 20 298 942 196 1758 483 151 1391 43 910 86 20 21
internal_value=1.52866e-10 -0.0037952 0.0245922 0.335822 0.0688347 0.358456 -0.00965891 0.00105636 -0.00020937 0.0576591 -0.00470282 0.0519631 0.0442435 -0.0138409 0.411381 -0.0152406 0.0524626 0.249262 0.00950916 0.0275414 0.0636701 0.00363897 -0.011101 0.0112124 0.0117181 0.0249432 0.0314034 0.169076 0.171475 0.22596
internal_weight=51186 50614 8665 572 2203 533 41949 11776 11755 847 10908 1892 1775 30173 359 29122 177 174 6462 1587 494 4875 1726 1093 3149 1051 953 117 311 154
internal_count=51186 50614 8665 572 2203 533 41949 11776 11755 847 10908 1892 1775 30173 359 29122 177 174 6462 1587 494 4875 1726 1093 3149 1051 953 117 311 154
is_linear=0
shrinkage=0.05


Tree=23
num_leaves=31
num_cat=0
split_feature=3 2 3 1 0 3 1 3 1 1 1 2 0 0 2 0 0 0 2 1 3 1 1 0 1 1 2 0 3 1
split_gain=23550.7 3067.22 1845.52 1574.23 1456.31 1255.25 998.073 698.496 3761.56 433.748 421.476 687.775 529.667 401.992 269.067 1330.37 262.615 245.122 242.764 323.048 216.038 200.808 200.55 327.36 238.61 198.938 137.241 135.502 126.931 121.855
threshold=62.244500000000009 698.24450000000013 47.201500000000003 457.61300000000006 22.573500000000006 52.21350000000001 500.80750000000006 49.948500000000003 784.04200000000014 470.62550000000005 749.44150000000013 146.11500000000004 20.503500000000006 23.372500000000006 1.0000000180025095e-35 19.938500000000001 21.529500000000002 22.028500000000005 1086.5550000000001 543.63200000000018 40.877500000000005 478.95350000000002 452.08650000000006 22.193500000000004 624.58050000000014 449.88400000000007 1086.5550000000001 21.756500000000006 49.407500000000006 507.27100000000002
decision_type=2 2 2 2 2 2 2 2 2 2 2 2 2 2 2 2 2 2 2 2 2 2 2 2 2 2 2 2 2 2
left_child=1 7 20 25 6 9 16 13 10 -5 12 -12 -9 14 15 -1 26 -16 19 29 -3 -7 23 -22 -24 28 -2 -20 -4 -8
right_child=4 2 3 5 -6 21 18 8 -10 -11 11 -13 -14 -15 17 -17 -18 -19 27 -21 22 -23 24 -25 -26 -27 -28 -29 -30 -31
leaf_value=0.27456082925200465 0.11869952758153279 -0.031703950251941969 0.10547128536778948 0.041363448688226473 -0.062195510886764775 0.027761221285909417 0.49885303766831107 -0.021753091153415574 0.6740844090779623 -0.018776925441460552 -0.018415458726231012 0.37496660709381108 0.010656808716261233 0.075427542888748478 -0.013428408545938457 -0.033777833446975825 0.40725010454654698 -0.00045309012455425608 0.24862446053461595 0.26103553175926208 0.0094933713809165505 0.19803337790360748 0.0030997583272141223 0.064072951329558078 0.060054994018700653 0.10080594584818869 0.23787903158011053 0.36784468384889457 0.17405304343332886 0.40851404257495
leaf_weight=48 30 295 92 955 24 20 46 1657 21 437 25 20 5270 133 32124 129 20 4105 44 34 718 129 3228 445 195 315 124 52 253 198
leaf_count=48 30 295 92 955 24 20 46 1657 21 437 25 20 5270 133 32124 129 20 4105 44 34 718 129 3228 445 195 315 124 52 253 198
internal_value=7.85673e-11 -0.00360544 0.026911 0.0649208 0.319031 0.0372473 0.335727 -0.00857001 0.00590751 0.0224832 0.00389493 0.156421 0.00290407 -0.0113408 -0.0116578 0.0498394 0.236799 -0.0119582 0.381753 0.405425 0.00977111 0.175178 0.012439 0.0303772 0.00634436 0.129534 0.214662 0.313202 0.155765 0.425545
internal_weight=51186 50614 7082 2201 572 1541 548 43532 6993 1392 6972 45 6927 36539 36406 177 174 36229 374 278 4881 149 4586 1163 3423 660 154 96 345 244
internal_count=51186 50614 7082 2201 572 1541 548 43532 6993 1392 6972 45 6927 36539 36406 177 174 36229 374 278 4881 149 4586 1163 3423 660 154 96 345 244
is_linear=0
shrinkage=0.05


Tree=24
num_leaves=31
num_cat=0
split_feature=3 2 3 1 1 3 1 3 1 1 0 0 0 1 2 2 3 0 3 1 1 3 2 0 1 1 2 0 0 1
split_gain=21254.5 2768.17 1665.59 1420.74 1328.08 1132.87 1020.61 642.022 3432.21 1268.65 4550.47 615.903 587.297 391.458 296.255 263.307 565.625 237.01 207.091 361.74 277.13 194.975 185.131 606.195 181.229 179.787 178.473 136.577 124.149 123.639
threshold=62.244500000000009 698.24450000000013 47.201500000000003 457.61300000000006 579.64050000000009 52.21350000000001 500.80750000000006 48.105500000000006 784.04200000000014 643.00000000000011 19.968500000000002 22.573500000000006 20.503500000000006 470.62550000000005 1086.5550000000001 4.5980000000000008 46.960500000000003 21.529500000000002 40.711500000000008 488.70450000000005 519.60250000000008 40.877500000000005 908.46600000000012 23.093500000000002 478.95350000000002 450.24750000000006 452.20500000000004 21.464500000000005 21.798500000000001 650.29000000000008
decision_type=2 2 2 2 2 2 2 2 2 2 2 2 2 2 2 2 2 2 2 2 2 2 2 2 2 2 2 2 2 2
left_child=1 7 21 25 6 13 17 11 9 12 -11 15 -9 -5 -8 16 -1 27 19 -13 -20 -3 23 -23 -7 -4 -17 -2 -16 -24
right_child=4 2 3 5 -6 24 14 8 -10 10 -12 18 -14 -15 28 26 -18 -19 20 -21 -22 22 29 -25 -26 -27 -28 -29 -30 -31
leaf_value=0.014019508458003163 0.22263952194523992 -0.030118752671484603 0.14746832628311082 0.039295275908991144 0.028897219687336828 0.02637316156178713 0.40026809625698689 -0.018315676954706383 0.64038017590840657 0.40179083909111468 0.020621981597321148 0.11828355462066541 0.005280247181277461 -0.017838079388698538 0.24632646778844439 -0.015397950822973672 0.28212971332527342 0.38688759148120883 -0.034697967223222569 0.023093452430744666 0.029719818729247772 0.017141892062786511 -0.0031765716372613817 0.20857283857961498 0.18813170927555065 0.095159634734903076 -0.0045074217516474545 0.08543000462509337 0.3606680753619172 0.059626299517638072
leaf_weight=311 133 295 352 955 41 20 261 4337 21 87 783 129 6728 437 53 25567 21 20 278 441 418 2693 1769 42 129 308 4411 21 43 82
leaf_count=311 133 295 352 955 41 20 261 4337 21 87 783 129 6728 437 53 25567 21 20 278 441 418 2693 1769 42 129 308 4411 21 43 82
internal_value=-2.52434e-10 -0.00342517 0.0255654 0.0616748 0.30308 0.0353849 0.32425 -0.00814151 0.00172643 0.0006027 0.0587389 -0.0118779 -0.00396833 0.021359 0.372644 -0.0133051 0.0309783 0.224959 0.0222904 0.0446365 0.00398973 0.00928255 0.0118171 0.0200816 0.166419 0.123058 -0.0137955 0.203929 0.297542 -0.000394381
internal_weight=51186 50614 7082 2201 572 1541 531 43532 11956 11935 870 31576 11065 1392 357 30310 332 174 1266 570 696 4881 4586 2735 149 660 29978 154 96 1851
internal_count=51186 50614 7082 2201 572 1541 531 43532 11956 11935 870 31576 11065 1392 357 30310 332 174 1266 570 696 4881 4586 2735 149 660 29978 154 96 1851
is_linear=0
shrinkage=0.05


Tree=25
num_leaves=31
num_cat=0
split_feature=3 2 3 0 0 1 0 3 0 2 2 2 1 3 0 1 1 3 1 3 2 1 1 2 3 3 1 0 2 1
split_gain=19182.2 2528.08 1722.88 1221.68 1216.7 816.449 671.132 1681.75 5780.99 5824.98 1391.02 682.378 1892.03 2152.21 618.371 879.087 507.393 390.604 346.715 707.132 345.825 810.441 253.756 240.11 239.477 224.143 216.928 213.901 199.542 257.986
threshold=62.244500000000009 803.74000000000012 49.808500000000002 21.798500000000001 22.573500000000006 500.80750000000006 21.075500000000002 53.718000000000011 20.866500000000006 227.50650000000005 195.13600000000005 129.63450000000003 514.33100000000002 47.943500000000007 23.141500000000004 630.41650000000016 463.35550000000006 41.912500000000001 501.75750000000005 43.815000000000005 585.63800000000003 661.55650000000014 542.43550000000016 1.0000000180025095e-35 50.598500000000008 44.258500000000005 511.03550000000001 21.529500000000002 1086.5550000000001 542.43550000000016
decision_type=2 2 2 2 2 2 2 2 2 2 2 2 2 2 2 2 2 2 2 2 2 2 2 2 2 2 2 2 2 2
left_child=1 6 17 24 5 27 7 20 9 -9 -10 12 13 -8 26 -16 -5 -3 25 -20 23 -22 -14 -1 -4 -19 -13 -2 29 -7
right_child=4 2 3 16 -6 28 11 8 10 -11 -12 14 22 -15 15 -17 -18 18 19 -21 21 -23 -24 -25 -26 -27 -28 -29 -30 -31
leaf_value=0.045646291901898943 0.19373267494722624 -0.019243467185575364 0.18010146881211295 0.11751349198942383 -0.060530599303698786 0.38455610844333477 0.049642145331913176 -0.013136132593665804 0.38847590401059107 0.94842525588141557 -0.035680654439921855 0.0038304267935623834 0.049420660060229417 0.4098007448233556 0.035304868567559947 0.27714077490706773 -0.013089932359589235 0.0098821576361704192 0.17585616310437521 -0.022982990437445401 0.012581741852562079 0.33523270547389988 -0.020213792559376959 -0.013601649360614544 0.10855559462184075 0.041200967689775242 -0.0087628510704224408 0.36754321008920671 0.28266488065322243 0.23936063596180507
leaf_weight=172 154 709 146 96 24 243 104 28 21 36 243 6951 203 69 298 43 330 873 48 653 724 20 368 29507 588 1653 6731 20 96 35
leaf_count=172 154 709 146 96 24 243 104 28 21 36 243 6951 203 69 298 43 330 873 48 653 724 20 368 29507 588 1653 6731 20 96 35
internal_value=3.64139e-11 -0.00325391 0.0301431 0.0836958 0.287926 0.303187 -0.00699289 -0.0112001 0.101412 0.527742 -0.00194093 0.00176835 0.0484311 0.193289 -0.000707377 0.0658003 0.0163418 0.0143602 0.0217433 -0.00936776 -0.0124143 0.0212552 0.00454241 -0.0132583 0.122787 0.030377 -0.00236497 0.213711 0.344814 0.366276
internal_weight=51186 50614 5096 1160 572 548 45518 30751 328 64 264 14767 744 173 14023 341 426 3936 3227 701 30423 744 571 29679 734 2526 13682 174 374 278
internal_count=51186 50614 5096 1160 572 548 45518 30751 328 64 264 14767 744 173 14023 341 426 3936 3227 701 30423 744 571 29679 734 2526 13682 174 374 278
is_linear=0
shrinkage=0.05


Tree=26
num_leaves=31
num_cat=0
split_feature=3 2 3 0 1 1 0 3 0 2 2 2 1 3 0 1 1 2 0 1 2 1 1 1 2 2 3 3 0 3
split_gain=17311.9 2281.59 1563.49 1282.32 1101.41 806.876 608.628 1124.8 5599.31 5257.05 1424.48 671.751 2189.44 1657.92 549.669 793.376 525.349 394.327 478.487 286.826 3161.34 284.786 260.477 232.555 224.274 218.686 203.756 248.827 193.046 192.709
threshold=62.244500000000009 803.74000000000012 48.793500000000002 21.886500000000002 594.71750000000009 500.80750000000006 21.159500000000005 53.718000000000011 20.866500000000006 227.50650000000005 189.32650000000004 129.63450000000003 515.27750000000003 47.278500000000008 23.141500000000004 630.41650000000016 549.40000000000009 879.29000000000008 21.756500000000006 749.44150000000013 507.12400000000008 452.66500000000002 542.43550000000016 463.97350000000006 1086.5550000000001 1.0000000180025095e-35 50.995500000000007 52.354500000000009 21.529500000000002 45.156500000000001
decision_type=2 2 2 2 2 2 2 2 2 2 2 2 2 2 2 2 2 2 2 2 2 2 2 2 2 2 2 2 2 2
left_child=1 6 17 26 5 28 7 19 9 -9 -10 12 13 -8 -13 -16 23 18 29 25 -21 -20 -14 -5 -7 -1 -4 -28 -2 -3
right_child=4 2 3 16 -6 24 11 8 10 -11 -12 14 22 -15 15 -17 -18 -19 21 20 -22 -23 -24 -25 -26 -27 27 -29 -30 -31
leaf_value=0.043488366620881222 0.18404604263071503 -0.028339640641731684 0.14751604794107967 0.096194898583090466 0.0058116651761035126 0.35768496375951103 0.0095648008709152549 -0.012479326182178089 0.36679512361685435 0.90100398990843034 -0.031697271357735347 -0.0018115712057272144 0.069806802551773892 0.38396947374688345 0.033539624386853789 0.26328372678091361 -0.068212406765889577 -0.0013635975979664622 0.099686976710303896 -0.011524752149961124 0.38400603351437235 0.029110577679152663 -0.018569955260435523 0.026134002517825522 0.26853164136409763 -0.012565115219419738 0.075620226792399658 0.16157550839109158 0.34916604906320575 0.029357234474767437
leaf_weight=175 154 273 304 156 36 266 48 28 24 36 342 12787 111 77 298 43 127 2383 305 620 55 269 335 492 96 30539 370 109 20 308
leaf_count=175 154 273 304 156 36 266 48 28 24 36 342 12787 111 77 298 43 127 2383 305 620 55 269 335 492 96 30539 370 109 20 308
internal_value=1.67531e-10 -0.00309122 0.0286359 0.0703706 0.273529 0.291511 -0.00664325 -0.0104369 0.0698822 0.501355 -0.00556662 0.00216832 0.0552581 0.240198 -0.00014081 0.0625103 0.0247759 0.0102575 0.0342343 -0.0115372 0.0207037 0.066612 0.00342516 0.0430005 0.334042 -0.0122457 0.115499 0.09518 0.203025 0.00224665
internal_weight=51186 50614 5096 1558 572 536 45518 31819 430 64 366 13699 571 125 13128 341 775 3538 1155 31389 675 574 446 648 362 30714 783 479 174 581
internal_count=51186 50614 5096 1558 572 536 45518 31819 430 64 366 13699 571 125 13128 341 775 3538 1155 31389 675 574 446 648 362 30714 783 479 174 581
is_linear=0
shrinkage=0.05


Tree=27
num_leaves=31
num_cat=0
split_feature=3 2 3 0 1 1 1 3 3 1 1 0 1 0 1 1 0 3 1 1 2 3 0 0 2 1 1 1 1 0
split_gain=15624 2092.99 1432.73 1025.11 980.198 668.878 662.761 555.76 496.97 2916.73 918.4 4200.73 466.39 465.693 244.866 301.134 446.326 232.104 219.698 212.038 211.314 519.859 186.41 174.224 164.529 208.073 145.654 155.788 127.433 112.294
threshold=62.244500000000009 615.28650000000016 49.246500000000005 22.573500000000006 457.61300000000006 500.80750000000006 691.67750000000012 56.163500000000006 48.105500000000006 784.04200000000014 636.55850000000009 19.938500000000001 481.22800000000007 22.573500000000006 532.1110000000001 603.6545000000001 22.573500000000006 45.156500000000001 448.80500000000001 449.88400000000007 4.5980000000000008 46.960500000000003 21.038500000000003 21.529500000000002 1086.5550000000001 542.43550000000016 476.9260000000001 483.84300000000007 491.14650000000006 21.756500000000006
decision_type=2 2 2 2 2 2 2 2 2 2 2 2 2 2 2 2 2 2 2 2 2 2 2 2 2 2 2 2 2 2
left_child=1 8 14 5 18 23 7 -6 13 10 12 -12 -10 20 17 -16 -17 22 -4 -19 21 -1 -3 28 25 -7 -15 -28 -2 -26
right_child=3 2 4 -5 6 24 -8 -9 9 -11 11 -13 -14 26 15 16 -18 19 -20 -21 -22 -23 -24 -25 29 -27 27 -29 -30 -31
leaf_value=0.011198505750255378 0.11382173673673111 -0.024409498738951766 0.14734615261542569 -0.059993860172107817 0.022451829856913085 0.34744405417775914 0.30081284007300502 0.13418134290880213 -0.015875034592974402 0.58984092076619465 0.38937192006808957 0.014752689278010002 0.0051004486852944458 -0.036286428294230982 -0.031746795847957469 -0.043733548311848038 0.0621160885961217 0.05306788747741447 0.084391791666793226 0.014620277258240369 -0.012663715445199515 0.26823345990408037 0.009354950780570288 0.331707752943039 0.19631709009408951 0.21704849549702235 0.12724585331192143 0.023878188019862096 0.20874485305011878 0.30484871772619399
leaf_weight=311 55 465 233 24 1535 243 23 120 4714 21 82 856 6053 97 769 163 256 551 342 1027 28662 21 3381 20 44 35 38 894 99 52
leaf_count=311 55 465 233 24 1535 243 23 120 4714 21 82 856 6053 97 769 163 256 551 342 1027 28662 21 3381 20 44 35 38 894 99 52
internal_value=1.87792e-11 -0.00293666 0.0191282 0.259853 0.0535631 0.273861 0.0342575 0.0305531 -0.00762192 0.00110708 5.08246e-05 0.0475019 -0.00408302 -0.0110312 0.00739473 -0.0131651 0.0209383 0.0118979 0.109902 0.0280453 -0.0122043 0.0274567 0.00527267 0.192874 0.311539 0.331027 0.022024 0.0280927 0.174844 0.255105
internal_weight=51186 50614 8865 572 2253 548 1678 1655 41749 11726 11705 938 10767 30023 6612 1188 419 5424 575 1578 28994 332 3846 174 374 278 1029 932 154 96
internal_count=51186 50614 8865 572 2253 548 1678 1655 41749 11726 11705 938 10767 30023 6612 1188 419 5424 575 1578 28994 332 3846 174 374 278 1029 932 154 96
is_linear=0
shrinkage=0.05


Tree=28
num_leaves=31
num_cat=0
split_feature=3 2 3 1 0 0 1 3 3 1 1 0 0 0 2 0 1 1 1 0 3 1 0 0 2 1 1 1 0 0
split_gain=14100.7 1888.92 1294.04 945.174 925.163 605.924 603.662 512.535 448.516 2632.35 828.856 3791.16 434.574 420.288 197.166 1183.02 195.616 192.419 271.284 386.896 179.71 172.814 171.243 157.237 148.488 188.05 131.453 140.599 124.999 110.139
threshold=62.244500000000009 615.28650000000016 48.707500000000003 457.61300000000006 22.573500000000006 20.772500000000004 500.80750000000006 56.163500000000006 48.105500000000006 784.04200000000014 636.55850000000009 19.938500000000001 20.503500000000006 22.573500000000006 1.0000000180025095e-35 19.938500000000001 448.80500000000001 532.1110000000001 603.6545000000001 22.573500000000006 45.156500000000001 450.24750000000006 21.863500000000005 21.529500000000002 1086.5550000000001 543.63200000000018 476.9260000000001 483.84300000000007 21.464500000000005 22.205500000000004
decision_type=2 2 2 2 2 2 2 2 2 2 2 2 2 2 2 2 2 2 2 2 2 2 2 2 2 2 2 2 2 2
left_child=1 8 17 16 6 -5 23 -7 13 10 12 -12 -10 14 15 -1 -4 20 -19 -20 22 -22 -3 28 25 29 -15 -28 -2 -8
right_child=4 2 3 5 -6 7 24 -9 9 -11 11 -13 -14 26 -16 -17 -18 18 19 -21 21 -23 -24 -25 -26 -27 27 -29 -30 -31
leaf_value=0.25292704937358701 0.18400132118311144 -0.0057464365173298636 0.13829534773629501 0.27109642166357778 -0.056994165852665903 0.020264889322018833 0.31128017902374272 0.12747227915252249 -0.016195379641989513 0.56034887631734209 0.36990332632530026 0.014015054644197531 0.0043137212120660509 -0.034472107641475722 -0.011917237169651783 -0.037834551445273472 0.080172202984491986 -0.029583963060141157 -0.040722692023427376 0.059121133975398643 0.047435495132325041 0.012653685143143981 0.015358427193060584 0.31512236192822463 0.24234980304415027 0.20431182980537416 0.12088355865133436 0.022684278654224205 0.052736347931481548 0.39067241016187171
leaf_weight=48 133 1886 251 26 24 1571 187 120 4301 21 82 856 6466 97 28817 129 342 748 157 254 558 992 1960 20 96 34 38 894 21 57
leaf_count=48 133 1886 251 26 24 1571 187 120 4301 21 82 856 6466 97 28817 129 342 748 157 254 558 992 1960 20 96 34 38 894 21 57
internal_value=3.50238e-11 -0.00278982 0.0181718 0.0503517 0.24686 0.0315558 0.260168 0.0278727 -0.00724082 0.00105172 4.8283e-05 0.0451268 -0.00387887 -0.0104796 -0.0115941 0.0410161 0.104774 0.00683153 -0.0116527 0.0209813 0.0108017 0.0251751 0.00500903 0.18323 0.295962 0.314476 0.0209228 0.0266881 0.166102 0.329827
internal_weight=51186 50614 8865 2310 572 1717 548 1691 41749 11726 11705 938 10767 30023 28994 177 593 6555 1159 411 5396 1550 3846 174 374 278 1029 932 154 244
internal_count=51186 50614 8865 2310 572 1717 548 1691 41749 11726 11705 938 10767 30023 28994 177 593 6555 1159 411 5396 1550 3846 174 374 278 1029 932 154 244
is_linear=0
shrinkage=0.05


Tree=29
num_leaves=31
num_cat=0
split_feature=3 2 3 1 1 0 1 1 3 3 1 1 3 1 0 1 1 0 3 0 2 0 2 0 3 1 1 0 3 1
split_gain=12725.8 1705.71 1164.16 844.053 786.643 656.295 477.081 445.553 479.983 410.577 2374.81 784.524 3108.7 414.18 386.668 196.932 245.352 367.053 192.103 178.715 177.746 1067.67 171.477 164.056 124.04 277.198 200.077 123.829 109.456 106.553
threshold=62.244500000000009 623.88250000000005 49.246500000000005 594.71750000000009 453.58300000000003 21.955500000000004 502.85350000000005 691.67750000000012 52.21350000000001 48.105500000000006 784.04200000000014 643.00000000000011 49.407500000000006 481.22800000000007 22.573500000000006 532.1110000000001 603.6545000000001 22.573500000000006 45.156500000000001 22.270500000000002 1.0000000180025095e-35 19.938500000000001 146.11500000000004 21.174500000000005 40.453500000000012 519.60250000000008 488.70450000000005 21.482500000000005 51.956500000000013 511.84750000000003
decision_type=2 2 2 2 2 2 2 2 2 2 2 2 2 2 2 2 2 2 2 2 2 2 2 2 2 2 2 2 2 2
left_child=1 9 15 5 28 6 27 8 -6 14 11 13 -13 -11 20 18 -17 -18 23 -20 21 -1 -8 -3 26 -26 -16 -2 -4 -7
right_child=3 2 4 -5 7 29 22 -9 -10 10 -12 12 -14 -15 24 16 17 -19 19 -21 -22 -23 -24 -25 25 -27 -28 -29 -30 -31
leaf_value=0.2402806964935735 0.17717589554579363 -0.016793830781499985 0.13040427382766587 0.00015489156616644727 0.022406555774812428 0.39422775794719828 0.4020638352348691 0.27156576365232471 0.08815190971988339 -0.014593548549127181 0.5323314507802327 0.35159846607007483 0.016427161418271146 0.0050678838975364996 0.10738779337295257 -0.028950057727385854 -0.040655826901981856 0.056069405883681617 0.019409739100999412 0.071197583040124496 -0.011293018289977183 -0.035942824658497359 0.25176397864588623 0.0098784017668384783 -0.031500821269875044 0.037736685917712752 0.023432237310259448 0.074170621826842018 0.0094812379963696014 0.3063259537079755
leaf_weight=48 138 711 291 36 1533 58 21 20 339 4727 21 76 771 6181 87 746 159 256 1352 190 28945 129 197 3048 279 300 385 37 20 85
leaf_count=48 138 711 291 36 1533 58 21 20 339 4727 21 76 771 6181 87 746 159 256 1352 190 28945 129 197 3048 279 300 385 37 20 85
internal_value=-4.16973e-11 -0.00265033 0.0175456 0.234517 0.0489339 0.250258 0.216884 0.0368203 0.0343124 -0.00682201 0.00109601 0.000146977 0.0465016 -0.00345243 -0.00991228 0.00684482 -0.0118064 0.0190108 0.0109297 0.0257909 -0.0109876 0.0389652 0.266242 0.00483345 0.0198824 0.00437353 0.0389071 0.155398 0.122628 0.341978
internal_weight=51186 50614 8665 572 2203 536 393 1892 1872 41949 11776 11755 847 10908 30173 6462 1161 415 5301 1542 29122 177 218 3759 1051 579 472 175 311 143
internal_count=51186 50614 8665 572 2203 536 393 1892 1872 41949 11776 11755 847 10908 30173 6462 1161 415 5301 1542 29122 177 218 3759 1051 579 472 175 311 143
is_linear=0
shrinkage=0.05


Tree=30
num_leaves=31
num_cat=0
split_feature=3 2 3 1 0 3 1 0 1 2 3 1 0 1 1 0 1 1 3 0 2 1 3 2 2 0 1 2 3 3
split_gain=11485.1 1545.56 919.114 817.883 779.203 768.991 515.301 385.355 824.086 352.77 351.73 2222.04 661.016 563.221 298.507 228.269 217.293 190.175 169.077 198.954 275.886 208.223 166.44 162.813 160.142 120.919 116.711 114.075 163.797 106.537
threshold=62.244500000000009 698.24450000000013 47.201500000000003 458.06750000000005 22.573500000000006 52.21350000000001 492.78850000000006 23.141500000000004 630.41650000000016 1086.5550000000001 48.105500000000006 761.51950000000011 20.262500000000006 481.22800000000007 473.19500000000011 22.573500000000006 542.43550000000016 511.84750000000003 41.912500000000001 21.663500000000003 879.29000000000008 505.512 53.718000000000011 189.32650000000004 4.5980000000000008 21.798500000000001 449.15850000000006 748.41350000000011 41.270500000000006 40.711500000000008
decision_type=2 2 2 2 2 2 2 2 2 2 2 2 2 2 2 2 2 2 2 2 2 2 2 2 2 2 2 2 2 2
left_child=1 7 18 26 6 14 -2 10 16 17 15 13 -13 -12 -5 24 -9 -8 27 21 -21 -20 -7 -18 -1 -11 -4 28 -3 -17
right_child=4 2 3 5 -6 22 9 8 -10 25 11 12 -14 -15 -16 29 23 -19 19 20 -22 -23 -24 -25 -26 -27 -28 -29 -30 -31
leaf_value=0.024493676538478181 0.11132529800477094 -0.030915291646782025 0.11300299357097209 0.028079961400608613 -0.056065769272390757 0.23861793595055741 0.35038346935962811 0.059163307301376179 0.25346410572528838 0.17819411099165472 -0.013671438494289518 0.52296870040893562 0.13731532061938198 0.0086167242381937417 -0.024323634259784996 0.032751310360807889 -0.069978438439064247 0.26196148398489055 0.0075804710806870283 0.040500716553479865 0.0026545728463918321 -0.034990204006715868 0.1068352883165123 0.030463676182798258 -0.010423966904260224 0.27381906620291779 0.071650295360169938 -0.020648087914326582 0.090803195896925482 0.00053857127902300582
leaf_weight=332 73 52 326 994 24 30 87 161 42 143 4780 25 20 6964 374 429 86 202 1767 1033 902 343 119 76 29978 43 358 725 59 639
leaf_count=332 73 52 326 994 24 30 87 161 42 143 4780 25 20 6964 374 429 86 202 1767 1033 902 343 119 76 29978 43 358 725 59 639
internal_value=1.97485e-10 -0.00251782 0.0191444 0.0459683 0.222791 0.0255019 0.235004 -0.00604194 0.0451175 0.254012 -0.00647452 0.000888787 0.351567 -0.000454922 0.0137532 -0.00924098 0.018026 0.28858 0.00704869 0.0112793 0.0228587 0.000660214 0.133369 -0.0228574 -0.0100415 0.200301 0.0913593 -0.0134211 0.0337819 0.013478
internal_weight=51186 50614 7082 2201 572 1517 548 43532 365 475 43167 11789 45 11744 1368 31378 323 289 4881 4045 1935 2110 149 162 30310 186 684 836 111 1068
internal_count=51186 50614 7082 2201 572 1517 548 43532 365 475 43167 11789 45 11744 1368 31378 323 289 4881 4045 1935 2110 149 162 30310 186 684 836 111 1068
is_linear=0
shrinkage=0.05


Tree=31
num_leaves=31
num_cat=0
split_feature=3 2 3 0 1 1 0 3 1 3 0 3 2 2 1 2 0 2 3 3 1 1 0 1 3 1 2 0 2 2
split_gain=10365.3 1410.46 987.497 1234.65 793.817 712.623 586.999 443.542 388.063 337.182 378.881 4533.03 3156.37 393.318 516.624 407.143 273.558 604.053 2752.82 412.418 182.948 221.874 340.029 179.944 2136.23 154.901 151.913 252.575 150.474 146.524
threshold=62.244500000000009 596.93500000000006 49.215500000000013 20.757500000000004 458.06750000000005 588.74600000000021 21.955500000000004 56.163500000000006 502.85350000000005 51.586000000000006 20.965500000000002 53.718000000000011 227.50650000000005 377.79600000000011 636.55850000000009 144.30200000000005 21.075500000000002 251.51200000000003 46.960500000000003 50.417500000000011 532.1110000000001 601.05800000000011 22.773500000000002 672.44200000000012 46.08700000000001 446.75350000000009 899.5535000000001 21.863500000000005 146.11500000000004 1.0000000180025095e-35
decision_type=2 2 2 2 2 2 2 2 2 2 2 2 2 2 2 2 2 2 2 2 2 2 2 2 2 2 2 2 2 2
left_child=1 9 20 -4 25 6 8 -6 -2 16 11 -11 -13 15 -15 -12 23 18 -18 -19 26 -22 -23 29 -25 -5 27 -3 -10 -1
right_child=5 2 3 4 7 -7 -8 -9 28 10 13 12 -14 14 -16 -17 17 19 -20 -21 21 22 -24 24 -26 -27 -28 -29 -30 -31
leaf_value=0.034883521448517606 0.13997614063535418 0.0050157385291718735 0.41619462072849278 0.12472020058947451 0.015381500782927472 0.0053357419199668446 0.31466207393578127 0.11394227200558758 0.36717833904992969 -0.012747082897250107 0.035016423368577992 0.1046168931626848 0.74263802319765093 0.009742259548876548 0.09783403931474878 -0.021643771988405308 -0.0094331503828610982 -0.0092554996201406666 0.14569124507051942 0.045472881791327704 -0.027473075610204119 -0.031256612926843251 0.057391731482085609 -0.014720423414169698 0.14908055533218173 0.071089865646714281 -0.0020220955382752467 0.031427902038611372 0.22638344346417996 -0.011411631991168436
leaf_weight=172 175 2323 22 204 1586 39 140 123 21 466 386 42 36 1044 198 1775 1175 6339 378 364 793 199 237 1669 226 396 1894 1483 197 27084
leaf_count=172 175 2323 22 204 1586 39 140 123 21 466 386 42 36 1044 198 1775 1175 6339 378 364 793 199 237 1669 226 396 1894 1483 197 27084
internal_value=-5.17081e-11 -0.00239193 0.0152468 0.043398 0.039846 0.211652 0.226748 0.0224751 0.19543 -0.0063416 0.0075575 0.0463028 0.399088 0.00136371 0.0237859 -0.0115231 -0.00780816 0.000226363 0.0283241 -0.00628353 0.00577643 -0.0117204 0.0169307 -0.0100837 0.00481468 0.0893242 0.009549 0.0153072 0.239946 -0.0111195
internal_weight=51186 50614 9260 2331 2309 572 533 1709 393 41354 3947 544 78 3403 1242 2161 37407 8256 1553 6703 6929 1229 436 29151 1895 600 5700 3806 218 27256
internal_count=51186 50614 9260 2331 2309 572 533 1709 393 41354 3947 544 78 3403 1242 2161 37407 8256 1553 6703 6929 1229 436 29151 1895 600 5700 3806 218 27256
is_linear=0
shrinkage=0.05


Tree=32
num_leaves=31
num_cat=0
split_feature=3 2 3 1 0 3 1 0 3 1 2 2 0 2 1 2 0 2 0 1 1 1 3 1 3 0 2 2 1 1
split_gain=9354.66 1291.84 922.785 780.2 652.821 526.138 435.709 373.299 304.865 1809.07 942.546 645.356 303.263 291.698 291.558 280.533 280.592 258.803 214.249 199.254 182.381 164.431 137.969 132.373 1386.89 97.3744 97.2169 87.9358 83.1849 120.145
threshold=62.244500000000009 803.74000000000012 46.256000000000007 462.78700000000009 22.573500000000006 52.21350000000001 492.78850000000006 19.775500000000005 47.278500000000008 761.51950000000011 475.02150000000006 16.674000000000003 22.645500000000002 1086.5550000000001 524.09950000000015 868.96850000000006 21.038500000000003 1.0000000180025095e-35 23.141500000000004 488.70450000000005 529.35600000000011 507.27100000000002 51.213500000000003 668.40300000000013 48.707500000000003 21.798500000000001 648.45000000000016 127.31450000000001 654.2410000000001 468.17750000000007
decision_type=2 2 2 2 2 2 2 2 2 2 2 2 2 2 2 2 2 2 2 2 2 2 2 2 2 2 2 2 2 2
left_child=1 7 15 22 6 14 -2 17 12 11 -11 -10 20 21 -5 16 -3 -1 -18 -14 -9 -8 -4 27 -25 -15 -23 -19 29 -17
right_child=4 2 3 5 -6 -7 13 8 9 10 -12 -13 19 25 -16 28 18 23 -20 -21 -22 26 -24 24 -26 -27 -28 -29 -30 -31
leaf_value=0.11724495917964631 0.098520929034646251 -0.034715165249625604 0.096435574715863476 0.02242793592074948 -0.054173699355063346 0.12061248812981014 0.33724830443399001 -0.0025841547866293185 0.13535619583790717 0.045050395364385279 0.48180354833602906 0.0023729201828356582 0.077271848064588589 0.16104689090662486 -0.045821880987348337 -0.00024929459256530672 0.037394281971577889 -0.017328810815457528 0.20342247009277348 0.012214056597079083 -0.012615347810682709 0.22420833764428441 0.050719688039472591 -0.02096711012444008 0.2599031200595931 0.24685860955437949 0.29984536830868042 -0.0093784091983245936 0.037386112721703411 -0.028115532289281223
leaf_weight=39 73 143 627 827 24 119 57 10208 92 21 30 10923 135 143 193 1642 683 5691 20 918 8148 176 224 318 51 43 56 8944 112 506
leaf_count=39 73 143 627 827 24 119 57 10208 92 21 30 10923 135 143 193 1642 683 5691 20 918 8148 176 224 318 51 43 56 8944 112 506
internal_value=6.1393e-11 -0.00227233 0.0216011 0.0481827 0.201069 0.0211213 0.212248 -0.0049451 -0.00176382 0.00485924 0.301964 0.00348363 -0.00553994 0.229726 0.009514 0.00457048 0.0291306 -0.0113899 0.0421177 0.0205548 -0.00703688 0.26116 0.0844023 -0.0117243 0.0178524 0.180885 0.242466 -0.01247 -0.00462326 -0.00681369
internal_weight=51186 50614 5096 1990 572 1139 548 45518 30475 11066 51 11015 19409 475 1020 3106 846 15043 703 1053 18356 289 851 15004 369 186 232 14635 2260 2148
internal_count=51186 50614 5096 1990 572 1139 548 45518 30475 11066 51 11015 19409 475 1020 3106 846 15043 703 1053 18356 289 851 15004 369 186 232 14635 2260 2148
is_linear=0
shrinkage=0.05


Tree=33
num_leaves=31
num_cat=0
split_feature=3 2 3 0 1 1 0 2 1 0 1 3 1 1 3 1 0 1 1 0 2 0 2 1 3 0 1 2 1 2
split_gain=8442.58 1169.14 801.997 981.372 697.363 608.519 461.646 385.389 319.25 312.175 737.979 273.534 857.583 244.926 208.439 1730.38 199.01 144.79 194.145 278.982 134.773 277.134 132.136 124.318 120.531 116.812 113.161 93.9717 82.5655 60.4408
threshold=62.244500000000009 604.71050000000002 48.707500000000003 20.757500000000004 457.61300000000006 594.71750000000009 21.955500000000004 908.46600000000012 502.85350000000005 23.141500000000004 630.41650000000016 60.619500000000009 554.10000000000002 542.43550000000016 47.836500000000008 784.04200000000014 22.623500000000003 533.93250000000012 601.05800000000011 22.911500000000004 899.5535000000001 21.955500000000004 146.11500000000004 446.75350000000009 41.912500000000001 21.482500000000005 619.55700000000013 189.32650000000004 505.512 260.32100000000008
decision_type=2 2 2 2 2 2 2 2 2 2 2 2 2 2 2 2 2 2 2 2 2 2 2 2 2 2 2 2 2 2
left_child=1 9 17 -4 23 6 8 -6 25 11 13 14 -13 29 16 -16 -1 20 -19 -20 21 -3 -10 -5 -22 -2 -14 -15 -8 -11
right_child=5 2 3 4 7 -7 28 -9 22 10 -12 12 26 27 15 -17 -18 18 19 -21 24 -23 -24 -25 -26 -27 -28 -29 -30 -31
leaf_value=-0.0092066977282587031 0.1472448932795711 0.0040260477783073349 0.37955176716759093 0.11256350124472972 0.002497961583529554 -0.0079783226311620752 0.35067167679468791 0.0516687703842061 0.33599414711906794 0.097548814595422972 0.23855781172003065 0.36979253232479098 -0.048733369923300213 -0.067503923966094503 -0.0016401746712727376 0.45261336508251376 0.021108075947521013 -0.026584359373831714 -0.019578514040331358 0.062128820082021731 -0.021534079179076057 0.032685068655103261 0.2040575458663445 0.065282919024845204 0.0060536936017502848 0.047200666277392493 0.089635320109399896 0.025259046102000866 0.26049712812358683 0.032951605451767736
leaf_weight=28156 138 2369 21 222 1109 36 33 622 21 55 42 20 45 86 12407 21 552 724 240 185 565 1310 197 372 1323 37 22 40 110 106
